{"learner":{"attributes":{"scikit_learn":"{\"_estimator_type\": \"regressor\"}"},"feature_names":[],"feature_types":[],"gradient_booster":{"model":{"gbtree_model_param":{"num_parallel_tree":"1","num_trees":"100"},"iteration_indptr":[0,1,2,3,4,5,6,7,8,9,10,11,12,13,14,15,16,17,18,19,20,21,22,23,24,25,26,27,28,29,30,31,32,33,34,35,36,37,38,39,40,41,42,43,44,45,46,47,48,49,50,51,52,53,54,55,56,57,58,59,60,61,62,63,64,65,66,67,68,69,70,71,72,73,74,75,76,77,78,79,80,81,82,83,84,85,86,87,88,89,90,91,92,93,94,95,96,97,98,99,100],"tree_info":[0,0,0,0,0,0,0,0,0,0,0,0,0,0,0,0,0,0,0,0,0,0,0,0,0,0,0,0,0,0,0,0,0,0,0,0,0,0,0,0,0,0,0,0,0,0,0,0,0,0,0,0,0,0,0,0,0,0,0,0,0,0,0,0,0,0,0,0,0,0,0,0,0,0,0,0,0,0,0,0,0,0,0,0,0,0,0,0,0,0,0,0,0,0,0,0,0,0,0,0],"trees":[{"base_weights":[2.1067722E-6,7.2434583E0,-1.6315653E1,3.3859928E0,2.9040102E1,-3.5286835E1,-1.191447E1,-2.4073894E-1,1.6647866E0,1.2872404E0,3.2113075E0,-4.3368325E0,-2.8846166E0,-8.6114645E-1,-3.0418618E0],"categories":[],"categories_nodes":[],"categories_segments":[],"categories_sizes":[],"default_left":[0,0,0,0,0,0,0,0,0,0,0,0,0,0,0],"id":0,"left_children":[1,3,5,7,9,11,13,-1,-1,-1,-1,-1,-1,-1,-1],"loss_changes":[2.725271E5,1.3417712E5,5.877797E4,1.0437671E5,1.1510531E4,5.671672E3,3.5003883E4,0E0,0E0,0E0,0E0,0E0,0E0,0E0,0E0],"parents":[2147483647,0,0,1,1,2,2,3,3,4,4,5,5,6,6],"right_children":[2,4,6,8,10,12,14,-1,-1,-1,-1,-1,-1,-1,-1],"split_conditions":[1E0,1E0,2.8E1,1E0,3.3E1,2.3E1,1E0,-2.4073894E-1,1.6647866E0,1.2872404E0,3.2113075E0,-4.3368325E0,-2.8846166E0,-8.6114645E-1,-3.0418618E0],"split_indices":[9,1,11,2,11,11,0,0,0,0,0,0,0,0,0],"split_type":[0,0,0,0,0,0,0,0,0,0,0,0,0,0,0],"sum_hessian":[2.304E3,1.596E3,7.08E2,1.357E3,2.39E2,1.32E2,5.76E2,9.45E2,4.12E2,3.9E1,2E2,5.6E1,7.6E1,4.9E2,8.6E1],"tree_param":{"num_deleted":"0","num_feature":"12","num_nodes":"15","size_leaf_vector":"1"}},{"base_weights":[-2.2555038E-3,6.522821E0,-1.46997795E1,3.0484412E0,2.615484E1,-3.1812452E1,-1.0729788E1,-2.1669061E-1,1.498711E0,1.1617347E0,2.891775E0,-3.7175279E0,-2.377472E0,-1.3254712E0,1.0845872E0],"categories":[],"categories_nodes":[],"categories_segments":[],"categories_sizes":[],"default_left":[0,0,0,0,0,0,0,0,0,0,0,0,0,0,0],"id":1,"left_children":[1,3,5,7,9,11,13,-1,-1,-1,-1,-1,-1,-1,-1],"loss_changes":[2.2115106E5,1.0885019E5,4.782611E4,8.45874E4,9.303844E3,4.8491406E3,3.1576922E4,0E0,0E0,0E0,0E0,0E0,0E0,0E0,0E0],"parents":[2147483647,0,0,1,1,2,2,3,3,4,4,5,5,6,6],"right_children":[2,4,6,8,10,12,14,-1,-1,-1,-1,-1,-1,-1,-1],"split_conditions":[1E0,1E0,2.8E1,1E0,3.3E1,2.4E1,1E0,-2.1669061E-1,1.498711E0,1.1617347E0,2.891775E0,-3.7175279E0,-2.377472E0,-1.3254712E0,1.0845872E0],"split_indices":[9,1,11,2,11,11,1,0,0,0,0,0,0,0,0],"split_type":[0,0,0,0,0,0,0,0,0,0,0,0,0,0,0],"sum_hessian":[2.304E3,1.596E3,7.08E2,1.357E3,2.39E2,1.32E2,5.76E2,9.45E2,4.12E2,3.9E1,2E2,7.7E1,5.5E1,5.16E2,6E1],"tree_param":{"num_deleted":"0","num_feature":"12","num_nodes":"15","size_leaf_vector":"1"}},{"base_weights":[-2.464516E-3,5.873879E0,-1.3238739E1,2.744541E0,2.3556244E1,-2.8677032E1,-9.6572275E0,-1.950445E-1,1.3492029E0,1.0484655E0,2.604036E0,-3.545527E0,-2.3286948E0,-6.723811E-1,-2.6101484E0],"categories":[],"categories_nodes":[],"categories_segments":[],"categories_sizes":[],"default_left":[0,0,0,0,0,0,0,0,0,0,0,0,0,0,0],"id":2,"left_children":[1,3,5,7,9,11,13,-1,-1,-1,-1,-1,-1,-1,-1],"loss_changes":[1.7936273E5,8.830391E4,3.8925383E4,6.855004E4,7.5201094E3,4.0335469E3,2.7657746E4,0E0,0E0,0E0,0E0,0E0,0E0,0E0,0E0],"parents":[2147483647,0,0,1,1,2,2,3,3,4,4,5,5,6,6],"right_children":[2,4,6,8,10,12,14,-1,-1,-1,-1,-1,-1,-1,-1],"split_conditions":[1E0,1E0,2.8E1,1E0,3.3E1,2.3E1,1E0,-1.950445E-1,1.3492029E0,1.0484655E0,2.604036E0,-3.545527E0,-2.3286948E0,-6.723811E-1,-2.6101484E0],"split_indices":[9,1,11,2,11,11,0,0,0,0,0,0,0,0,0],"split_type":[0,0,0,0,0,0,0,0,0,0,0,0,0,0,0],"sum_hessian":[2.304E3,1.596E3,7.08E2,1.357E3,2.39E2,1.32E2,5.76E2,9.45E2,4.12E2,3.9E1,2E2,5.6E1,7.6E1,4.9E2,8.6E1],"tree_param":{"num_deleted":"0","num_feature":"12","num_nodes":"15","size_leaf_vector":"1"}},{"base_weights":[-4.1057463E-3,5.289501E0,-1.1927782E1,9.871823E0,-4.9618607E0,-1.4011807E1,1.0440421E1,-1.8046026E-1,1.3691286E0,-2.2008154E0,-3.7335286E-1,-2.4992845E0,-1.063203E0,1.5224255E0,2.942731E-1],"categories":[],"categories_nodes":[],"categories_segments":[],"categories_sizes":[],"default_left":[0,0,0,0,0,0,0,0,0,0,0,0,0,0,0],"id":3,"left_children":[1,3,5,7,9,11,13,-1,-1,-1,-1,-1,-1,-1,-1],"loss_changes":[1.4555298E5,7.5068125E4,3.319696E4,4.9260523E4,1.0261459E4,2.382093E4,2.1431284E3,0E0,0E0,0E0,0E0,0E0,0E0,0E0,0E0],"parents":[2147483647,0,0,1,1,2,2,3,3,4,4,5,5,6,6],"right_children":[2,4,6,8,10,12,14,-1,-1,-1,-1,-1,-1,-1,-1],"split_conditions":[1E0,1E0,1E0,3.5E1,2.6E1,2.9E1,1E0,-1.8046026E-1,1.3691286E0,-2.2008154E0,-3.7335286E-1,-2.4992845E0,-1.063203E0,1.5224255E0,2.942731E-1],"split_indices":[9,3,1,11,11,11,5,0,0,0,0,0,0,0,0],"split_type":[0,0,0,0,0,0,0,0,0,0,0,0,0,0,0],"sum_hessian":[2.304E3,1.596E3,7.08E2,1.103E3,4.93E2,6.48E2,6E1,2.72E2,8.31E2,3.2E1,4.61E2,1.51E2,4.97E2,3.6E1,2.4E1],"tree_param":{"num_deleted":"0","num_feature":"12","num_nodes":"15","size_leaf_vector":"1"}},{"base_weights":[-5.053244E-3,4.7596846E0,-1.0737467E1,2.0283563E0,2.0194618E1,-1.26161175E1,9.426163E0,-1.9650151E-1,1.117049E0,2.3043408E0,8.319392E-1,-1.5337316E0,-3.676093E-2,1.3742979E0,2.660229E-1],"categories":[],"categories_nodes":[],"categories_segments":[],"categories_sizes":[],"default_left":[0,0,0,0,0,0,0,0,0,0,0,0,0,0,0],"id":4,"left_children":[1,3,5,7,9,11,13,-1,-1,-1,-1,-1,-1,-1,-1],"loss_changes":[1.179222E5,6.728516E4,2.6976133E4,4.9599723E4,7.927492E3,2.162593E4,1.7450854E3,0E0,0E0,0E0,0E0,0E0,0E0,0E0,0E0],"parents":[2147483647,0,0,1,1,2,2,3,3,4,4,5,5,6,6],"right_children":[2,4,6,8,10,12,14,-1,-1,-1,-1,-1,-1,-1,-1],"split_conditions":[1E0,1E0,1E0,1E0,5.5E1,1E0,1E0,-1.9650151E-1,1.117049E0,2.3043408E0,8.319392E-1,-1.5337316E0,-3.676093E-2,1.3742979E0,2.660229E-1],"split_indices":[9,1,1,2,11,2,5,0,0,0,0,0,0,0,0],"split_type":[0,0,0,0,0,0,0,0,0,0,0,0,0,0,0],"sum_hessian":[2.304E3,1.596E3,7.08E2,1.357E3,2.39E2,6.48E2,6E1,9.45E2,4.12E2,1.92E2,4.7E1,5.3E2,1.18E2,3.6E1,2.4E1],"tree_param":{"num_deleted":"0","num_feature":"12","num_nodes":"15","size_leaf_vector":"1"}},{"base_weights":[-2.7582098E-3,-1.8459219E1,2.3324769E0,-2.5228456E1,-1.3292479E1,6.3816123E0,-6.0546126E0,-3.2425244E0,-2.3389716E0,-1.0166873E0,-1.8602953E0,9.6079606E-1,-1.6202418E0,-2.9870376E-1,-1.235899E0],"categories":[],"categories_nodes":[],"categories_segments":[],"categories_sizes":[],"default_left":[0,0,0,0,0,0,0,0,0,0,0,0,0,0,0],"id":5,"left_children":[1,3,5,7,9,11,13,-1,-1,-1,-1,-1,-1,-1,-1],"loss_changes":[9.938895E4,8.723156E3,6.95557E4,7.104453E2,2.2840352E3,1.007808E5,1.2862297E4,0E0,0E0,0E0,0E0,0E0,0E0,0E0,0E0],"parents":[2147483647,0,0,1,1,2,2,3,3,4,4,5,5,6,6],"right_children":[2,4,6,8,10,12,14,-1,-1,-1,-1,-1,-1,-1,-1],"split_conditions":[2.8E1,2.4E1,1E0,2E1,1E0,1E0,1E0,-3.2425244E0,-2.3389716E0,-1.0166873E0,-1.8602953E0,9.6079606E-1,-1.6202418E0,-2.9870376E-1,-1.235899E0],"split_indices":[11,11,3,11,3,0,9,0,0,0,0,0,0,0,0],"split_type":[0,0,0,0,0,0,0,0,0,0,0,0,0,0,0],"sum_hessian":[2.304E3,2.58E2,2.046E3,1.1E2,1.48E2,1.38E3,6.66E2,1.9E1,9.1E1,9.5E1,5.3E1,1.208E3,1.72E2,4.49E2,2.17E2],"tree_param":{"num_deleted":"0","num_feature":"12","num_nodes":"15","size_leaf_vector":"1"}},{"base_weights":[-7.101487E-3,4.0163193E0,-9.069719E0,1.6705674E0,1.727263E1,-1.9968136E1,-6.541887E0,-1.6594195E-1,9.294047E-1,1.9846419E0,6.5640086E-1,-2.552106E0,-1.5598205E0,-4.267407E-1,-1.9303124E0],"categories":[],"categories_nodes":[],"categories_segments":[],"categories_sizes":[],"default_left":[0,0,0,0,0,0,0,0,0,0,0,0,0,0,0],"id":6,"left_children":[1,3,5,7,9,11,13,-1,-1,-1,-1,-1,-1,-1,-1],"loss_changes":[8.4083E4,4.9631477E4,1.9401871E4,3.4489727E4,6.484547E3,2.8292812E3,1.6665152E4,0E0,0E0,0E0,0E0,0E0,0E0,0E0,0E0],"parents":[2147483647,0,0,1,1,2,2,3,3,4,4,5,5,6,6],"right_children":[2,4,6,8,10,12,14,-1,-1,-1,-1,-1,-1,-1,-1],"split_conditions":[1E0,1E0,2.8E1,1E0,5.5E1,2.3E1,1E0,-1.6594195E-1,9.294047E-1,1.9846419E0,6.5640086E-1,-2.552106E0,-1.5598205E0,-4.267407E-1,-1.9303124E0],"split_indices":[9,1,11,2,11,11,0,0,0,0,0,0,0,0,0],"split_type":[0,0,0,0,0,0,0,0,0,0,0,0,0,0,0],"sum_hessian":[2.304E3,1.596E3,7.08E2,1.357E3,2.39E2,1.32E2,5.76E2,9.45E2,4.12E2,1.92E2,4.7E1,5.6E1,7.6E1,4.9E2,8.6E1],"tree_param":{"num_deleted":"0","num_feature":"12","num_nodes":"15","size_leaf_vector":"1"}},{"base_weights":[-7.721487E-3,-1.5753707E1,1.9845687E0,-2.1183115E1,-1.16032505E1,-8.286915E-2,1.4263328E1,-2.432388E0,-1.766408E0,-9.084771E-1,-1.5865673E0,-3.2781816E-1,8.4716314E-1,1.6228212E0,6.917759E-1],"categories":[],"categories_nodes":[],"categories_segments":[],"categories_sizes":[],"default_left":[0,0,0,0,0,0,0,0,0,0,0,0,0,0,0],"id":7,"left_children":[1,3,5,7,9,11,13,-1,-1,-1,-1,-1,-1,-1,-1],"loss_changes":[7.234043E4,5.5906523E3,5.196545E4,7.9716406E2,1.4553535E3,4.79448E4,4.1455273E3,0E0,0E0,0E0,0E0,0E0,0E0,0E0,0E0],"parents":[2147483647,0,0,1,1,2,2,3,3,4,4,5,5,6,6],"right_children":[2,4,6,8,10,12,14,-1,-1,-1,-1,-1,-1,-1,-1],"split_conditions":[2.8E1,2.4E1,1E0,1E0,1E0,1E0,5.5E1,-2.432388E0,-1.766408E0,-9.084771E-1,-1.5865673E0,-3.2781816E-1,8.4716314E-1,1.6228212E0,6.917759E-1],"split_indices":[11,11,1,3,3,2,11,0,0,0,0,0,0,0,0],"split_type":[0,0,0,0,0,0,0,0,0,0,0,0,0,0,0],"sum_hessian":[2.304E3,2.58E2,2.046E3,1.1E2,1.48E2,1.752E3,2.94E2,5.5E1,5.5E1,9.5E1,5.3E1,1.276E3,4.76E2,2.31E2,6.3E1],"tree_param":{"num_deleted":"0","num_feature":"12","num_nodes":"15","size_leaf_vector":"1"}},{"base_weights":[-8.621825E-3,3.4892652E0,-7.8874893E0,-4.804185E0,6.0649242E0,-1.2336035E1,-3.263385E0,-1.5538157E0,-2.0605545E-1,9.7037095E-1,-1.753463E-1,-1.9606276E0,-1.0295843E0,-1.2641345E0,2.0262864E-1],"categories":[],"categories_nodes":[],"categories_segments":[],"categories_sizes":[],"default_left":[0,0,0,0,0,0,0,0,0,0,0,0,0,0,0],"id":8,"left_children":[1,3,5,7,9,11,13,-1,-1,-1,-1,-1,-1,-1,-1],"loss_changes":[6.3551914E4,3.4142816E4,1.4544254E4,1.1129554E4,3.4696875E4,5.152742E3,1.7338225E4,0E0,0E0,0E0,0E0,0E0,0E0,0E0,0E0],"parents":[2147483647,0,0,1,1,2,2,3,3,4,4,5,5,6,6],"right_children":[2,4,6,8,10,12,14,-1,-1,-1,-1,-1,-1,-1,-1],"split_conditions":[1E0,3.5E1,4E1,2.6E1,1E0,2.4E1,1E0,-1.5538157E0,-2.0605545E-1,9.7037095E-1,-1.753463E-1,-1.9606276E0,-1.0295843E0,-1.2641345E0,2.0262864E-1],"split_indices":[9,11,11,11,3,11,7,0,0,0,0,0,0,0,0],"split_type":[0,0,0,0,0,0,0,0,0,0,0,0,0,0,0],"sum_hessian":[2.304E3,1.596E3,7.08E2,3.78E2,1.218E3,3.6E2,3.48E2,7.6E1,3.02E2,8.31E2,3.87E2,7.7E1,2.83E2,1.25E2,2.23E2],"tree_param":{"num_deleted":"0","num_feature":"12","num_nodes":"15","size_leaf_vector":"1"}},{"base_weights":[-9.934448E-3,3.1397364E0,-7.104454E0,1.3099704E0,1.3480081E1,-8.412179E0,6.9253507E0,-6.0580975E-1,3.633959E-1,1.5469335E0,3.1470773E-1,-1.0239896E0,-1.8588174E-2,1.0853331E0,8.349254E-2],"categories":[],"categories_nodes":[],"categories_segments":[],"categories_sizes":[],"default_left":[0,0,0,0,0,0,0,0,0,0,0,0,0,0,0],"id":9,"left_children":[1,3,5,7,9,11,13,-1,-1,-1,-1,-1,-1,-1,-1],"loss_changes":[5.1528457E4,3.0198238E4,1.3066371E4,2.3275465E4,4.8845117E3,9.756035E3,1.4502461E3,0E0,0E0,0E0,0E0,0E0,0E0,0E0,0E0],"parents":[2147483647,0,0,1,1,2,2,3,3,4,4,5,5,6,6],"right_children":[2,4,6,8,10,12,14,-1,-1,-1,-1,-1,-1,-1,-1],"split_conditions":[1E0,1E0,1E0,3.5E1,5.6E1,1E0,1E0,-6.0580975E-1,3.633959E-1,1.5469335E0,3.1470773E-1,-1.0239896E0,-1.8588174E-2,1.0853331E0,8.349254E-2],"split_indices":[9,1,1,11,11,2,5,0,0,0,0,0,0,0,0],"split_type":[0,0,0,0,0,0,0,0,0,0,0,0,0,0,0],"sum_hessian":[2.304E3,1.596E3,7.08E2,1.357E3,2.39E2,6.48E2,6E1,3.25E2,1.032E3,2E2,3.9E1,5.3E2,1.18E2,3.6E1,2.4E1],"tree_param":{"num_deleted":"0","num_feature":"12","num_nodes":"15","size_leaf_vector":"1"}},{"base_weights":[-8.184347E-3,-1.2197882E1,1.5341408E0,-1.6444517E1,-8.952415E0,2.865691E0,-1.2906266E1,-1.9302847E0,-1.3292533E0,-6.8381613E-1,-1.2545305E0,6.856063E-1,-4.3715286E-1,-1.8552468E0,-1.1124518E0],"categories":[],"categories_nodes":[],"categories_segments":[],"categories_sizes":[],"default_left":[0,0,0,0,0,0,0,0,0,0,0,0,0,0,0],"id":10,"left_children":[1,3,5,7,9,11,13,-1,-1,-1,-1,-1,-1,-1,-1],"loss_changes":[4.3353805E4,3.4224023E3,3.939696E4,7.4346094E2,1.0460596E3,5.417847E4,1.5340098E3,0E0,0E0,0E0,0E0,0E0,0E0,0E0,0E0],"parents":[2147483647,0,0,1,1,2,2,3,3,4,4,5,5,6,6],"right_children":[2,4,6,8,10,12,14,-1,-1,-1,-1,-1,-1,-1,-1],"split_conditions":[2.8E1,2.4E1,1E0,1E0,1E0,1E0,3.6E1,-1.9302847E0,-1.3292533E0,-6.8381613E-1,-1.2545305E0,6.856063E-1,-4.3715286E-1,-1.8552468E0,-1.1124518E0],"split_indices":[11,11,0,3,3,3,11,0,0,0,0,0,0,0,0],"split_type":[0,0,0,0,0,0,0,0,0,0,0,0,0,0,0],"sum_hessian":[2.304E3,2.58E2,2.046E3,1.1E2,1.48E2,1.874E3,1.72E2,5.5E1,5.5E1,9.5E1,5.3E1,1.208E3,6.66E2,3.9E1,1.33E2],"tree_param":{"num_deleted":"0","num_feature":"12","num_nodes":"15","size_leaf_vector":"1"}},{"base_weights":[-1.080121E-2,-6.9546742E0,2.3875556E0,-1.4829431E1,-5.1267643E0,5.288302E0,-3.3978536E0,-2.0895042E0,-1.3349631E0,-6.2774384E-1,3.920783E-1,7.694537E-1,-1.0799522E0,-8.1139994E-1,-1.8866178E-2],"categories":[],"categories_nodes":[],"categories_segments":[],"categories_sizes":[],"default_left":[0,0,0,0,0,0,0,0,0,0,0,0,0,0,0],"id":11,"left_children":[1,3,5,7,9,11,13,-1,-1,-1,-1,-1,-1,-1,-1],"loss_changes":[3.840381E4,8.445428E3,2.8782324E4,7.173828E2,5.0426064E3,4.4291156E4,8.670834E3,0E0,0E0,0E0,0E0,0E0,0E0,0E0,0E0],"parents":[2147483647,0,0,1,1,2,2,3,3,4,4,5,5,6,6],"right_children":[2,4,6,8,10,12,14,-1,-1,-1,-1,-1,-1,-1,-1],"split_conditions":[3.4E1,2.4E1,1E0,2E1,1E0,1E0,1E0,-2.0895042E0,-1.3349631E0,-6.2774384E-1,3.920783E-1,7.694537E-1,-1.0799522E0,-8.1139994E-1,-1.8866178E-2],"split_indices":[11,11,3,11,1,0,7,0,0,0,0,0,0,0,0],"split_type":[0,0,0,0,0,0,0,0,0,0,0,0,0,0,0],"sum_hessian":[2.304E3,5.91E2,1.713E3,1.1E2,4.81E2,1.141E3,5.72E2,1.9E1,9.1E1,4.27E2,5.4E1,9.93E2,1.48E2,2.31E2,3.41E2],"tree_param":{"num_deleted":"0","num_feature":"12","num_nodes":"15","size_leaf_vector":"1"}},{"base_weights":[-1.1803769E-2,2.579568E0,-5.8487697E0,1.1266142E0,1.0790115E1,-9.097569E0,-2.4715042E0,-1.0023608E-1,6.000425E-1,1.2831937E0,2.3554996E-1,-1.6721767E0,-8.175295E-1,-1.03905E0,1.9939645E-1],"categories":[],"categories_nodes":[],"categories_segments":[],"categories_sizes":[],"default_left":[0,0,0,0,0,0,0,0,0,0,0,0,0,0,0],"id":12,"left_children":[1,3,5,7,9,11,13,-1,-1,-1,-1,-1,-1,-1,-1],"loss_changes":[3.4879934E4,1.9039328E4,7.756709E3,1.4096924E4,4.103051E3,2.401705E3,1.2362066E4,0E0,0E0,0E0,0E0,0E0,0E0,0E0,0E0],"parents":[2147483647,0,0,1,1,2,2,3,3,4,4,5,5,6,6],"right_children":[2,4,6,8,10,12,14,-1,-1,-1,-1,-1,-1,-1,-1],"split_conditions":[1E0,1E0,4E1,1E0,5.5E1,2.2E1,1E0,-1.0023608E-1,6.000425E-1,1.2831937E0,2.3554996E-1,-1.6721767E0,-8.175295E-1,-1.03905E0,1.9939645E-1],"split_indices":[9,1,11,2,11,11,7,0,0,0,0,0,0,0,0],"split_type":[0,0,0,0,0,0,0,0,0,0,0,0,0,0,0],"sum_hessian":[2.304E3,1.596E3,7.08E2,1.357E3,2.39E2,3.6E2,3.48E2,9.45E2,4.12E2,1.92E2,4.7E1,3.7E1,3.23E2,1.25E2,2.23E2],"tree_param":{"num_deleted":"0","num_feature":"12","num_nodes":"15","size_leaf_vector":"1"}},{"base_weights":[-1.1192651E-2,-4.8877964E0,2.6493747E0,-1.0885691E1,-3.1433303E0,-2.663535E0,5.2186966E0,-1.5402739E0,-9.635462E-1,-2.1296303E-1,-1.440903E0,2.4187937E-2,-9.724168E-1,3.6546892E-1,1.2375449E0],"categories":[],"categories_nodes":[],"categories_segments":[],"categories_sizes":[],"default_left":[0,0,0,0,0,0,0,0,0,0,0,0,0,0,0],"id":13,"left_children":[1,3,5,7,9,11,13,-1,-1,-1,-1,-1,-1,-1,-1],"loss_changes":[2.9919246E4,8.482766E3,2.0380559E4,8.850508E2,7.1867783E3,9.992701E3,1.1215141E4,0E0,0E0,0E0,0E0,0E0,0E0,0E0,0E0],"parents":[2147483647,0,0,1,1,2,2,3,3,4,4,5,5,6,6],"right_children":[2,4,6,8,10,12,14,-1,-1,-1,-1,-1,-1,-1,-1],"split_conditions":[3.8E1,2.6E1,1E0,2.1E1,1E0,1E0,1E0,-1.5402739E0,-9.635462E-1,-2.1296303E-1,-1.440903E0,2.4187937E-2,-9.724168E-1,3.6546892E-1,1.2375449E0],"split_indices":[11,11,7,11,0,9,1,0,0,0,0,0,0,0,0],"split_type":[0,0,0,0,0,0,0,0,0,0,0,0,0,0,0],"sum_hessian":[2.304E3,8.13E2,1.491E3,1.82E2,6.31E2,4.86E2,1.005E3,3.7E1,1.45E2,5.8E2,5.1E1,3.45E2,1.41E2,8.26E2,1.79E2],"tree_param":{"num_deleted":"0","num_feature":"12","num_nodes":"15","size_leaf_vector":"1"}},{"base_weights":[-1.1594118E-2,2.1762345E0,-4.9395924E0,-3.3131158E0,3.8811464E0,-5.8209476E0,4.518426E0,-1.052925E0,-1.4683785E-1,6.2649256E-1,-1.2404653E-1,-7.0611507E-1,-2.3801826E-2,5.2831557E-2,9.5234424E-1],"categories":[],"categories_nodes":[],"categories_segments":[],"categories_sizes":[],"default_left":[0,0,0,0,0,0,0,0,0,0,0,0,0,0,0],"id":14,"left_children":[1,3,5,7,9,11,13,-1,-1,-1,-1,-1,-1,-1,-1],"loss_changes":[2.4862373E4,1.4958957E4,5.9364375E3,5.0297383E3,1.4890285E4,4.4919727E3,1.2131732E3,0E0,0E0,0E0,0E0,0E0,0E0,0E0,0E0],"parents":[2147483647,0,0,1,1,2,2,3,3,4,4,5,5,6,6],"right_children":[2,4,6,8,10,12,14,-1,-1,-1,-1,-1,-1,-1,-1],"split_conditions":[1E0,3.5E1,1E0,2.6E1,1E0,1E0,4.9E1,-1.052925E0,-1.4683785E-1,6.2649256E-1,-1.2404653E-1,-7.0611507E-1,-2.3801826E-2,5.2831557E-2,9.5234424E-1],"split_indices":[9,11,1,11,3,2,11,0,0,0,0,0,0,0,0],"split_type":[0,0,0,0,0,0,0,0,0,0,0,0,0,0,0],"sum_hessian":[2.304E3,1.596E3,7.08E2,3.78E2,1.218E3,6.48E2,6E1,7.6E1,3.02E2,8.31E2,3.87E2,5.3E2,1.18E2,3.4E1,2.6E1],"tree_param":{"num_deleted":"0","num_feature":"12","num_nodes":"15","size_leaf_vector":"1"}},{"base_weights":[-1.0618988E-2,9.391888E-1,-1.012266E1,3.6905928E0,-3.7979882E0,-1.2381401E1,-8.314037E0,-2.3266771E-1,6.0198563E-1,-1.9036947E-1,-7.102893E-1,-5.917784E-1,-1.3663605E0,2.6244408E-1,-1.0278397E0],"categories":[],"categories_nodes":[],"categories_segments":[],"categories_sizes":[],"default_left":[0,0,0,0,0,0,0,0,0,0,0,0,0,0,0],"id":15,"left_children":[1,3,5,7,9,11,13,-1,-1,-1,-1,-1,-1,-1,-1],"loss_changes":[2.214787E4,2.7489451E4,7.0593164E2,1.871109E4,4.838335E3,6.3188086E2,2.455019E3,0E0,0E0,0E0,0E0,0E0,0E0,0E0,0E0],"parents":[2147483647,0,0,1,1,2,2,3,3,4,4,5,5,6,6],"right_children":[2,4,6,8,10,12,14,-1,-1,-1,-1,-1,-1,-1,-1],"split_conditions":[1E0,1E0,4.1E1,3.5E1,1E0,2.5E1,4.3E1,-2.3266771E-1,6.0198563E-1,-1.9036947E-1,-7.102893E-1,-5.917784E-1,-1.3663605E0,2.6244408E-1,-1.0278397E0],"split_indices":[0,3,11,11,9,11,11,0,0,0,0,0,0,0,0],"split_type":[0,0,0,0,0,0,0,0,0,0,0,0,0,0,0],"sum_hessian":[2.304E3,2.107E3,1.97E2,1.333E3,7.74E2,8.5E1,1.12E2,3.72E2,9.61E2,4.93E2,2.81E2,1.5E1,7E1,1.7E1,9.5E1],"tree_param":{"num_deleted":"0","num_feature":"12","num_nodes":"15","size_leaf_vector":"1"}},{"base_weights":[-1.0968567E-2,-1.1020887E0,7.2850246E0,-2.7232726E0,3.4063282E0,8.870614E0,1.2995613E0,-4.5849583E-1,8.654042E-2,4.137602E-1,-1.7664835E0,4.5035058E-1,1.3311208E0,6.673947E-1,-1.0857784E0],"categories":[],"categories_nodes":[],"categories_segments":[],"categories_sizes":[],"default_left":[0,0,0,0,0,0,0,0,0,0,0,0,0,0,0],"id":16,"left_children":[1,3,5,7,9,11,13,-1,-1,-1,-1,-1,-1,-1,-1],"loss_changes":[1.8357684E4,1.4671074E4,2.8356191E3,9.865105E3,8.255154E3,4.536088E3,4.254113E3,0E0,0E0,0E0,0E0,0E0,0E0,0E0,0E0],"parents":[2147483647,0,0,1,1,2,2,3,3,4,4,5,5,6,6],"right_children":[2,4,6,8,10,12,14,-1,-1,-1,-1,-1,-1,-1,-1],"split_conditions":[1E0,1E0,5.5E1,1E0,6.3E1,4.2E1,1E0,-4.5849583E-1,8.654042E-2,4.137602E-1,-1.7664835E0,4.5035058E-1,1.3311208E0,6.673947E-1,-1.0857784E0],"split_indices":[1,2,11,4,11,11,5,0,0,0,0,0,0,0,0],"split_type":[0,0,0,0,0,0,0,0,0,0,0,0,0,0,0],"sum_hessian":[2.304E3,2.005E3,2.99E2,1.475E3,5.3E2,2.36E2,6.3E1,9.71E2,5.04E2,5.13E2,1.7E1,1.2E2,1.16E2,4.4E1,1.9E1],"tree_param":{"num_deleted":"0","num_feature":"12","num_nodes":"15","size_leaf_vector":"1"}},{"base_weights":[-1.0027491E-2,-3.7472498E0,2.0289197E0,-7.552369E0,-1.9679817E0,-2.35397E0,4.1486397E0,-9.9919385E-1,-5.6842846E-1,1.0492375E-1,-4.6603653E-1,-1.0287097E-2,-7.8224653E-1,4.9291286E-1,-5.4669386E-1],"categories":[],"categories_nodes":[],"categories_segments":[],"categories_sizes":[],"default_left":[0,0,0,0,0,0,0,0,0,0,0,0,0,0,0],"id":17,"left_children":[1,3,5,7,9,11,13,-1,-1,-1,-1,-1,-1,-1,-1],"loss_changes":[1.75717E4,5.4961836E3,1.38711875E4,1.1235488E3,4.521562E3,5.9942256E3,7.576832E3,0E0,0E0,0E0,0E0,0E0,0E0,0E0,0E0],"parents":[2147483647,0,0,1,1,2,2,3,3,4,4,5,5,6,6],"right_children":[2,4,6,8,10,12,14,-1,-1,-1,-1,-1,-1,-1,-1],"split_conditions":[3.8E1,2.8E1,1E0,2.4E1,1E0,1E0,1E0,-9.9919385E-1,-5.6842846E-1,1.0492375E-1,-4.6603653E-1,-1.0287097E-2,-7.8224653E-1,4.9291286E-1,-5.4669386E-1],"split_indices":[11,11,7,11,5,9,0,0,0,0,0,0,0,0,0],"split_type":[0,0,0,0,0,0,0,0,0,0,0,0,0,0,0],"sum_hessian":[2.304E3,8.13E2,1.491E3,2.58E2,5.55E2,4.86E2,1.005E3,1.1E2,1.48E2,2.62E2,2.93E2,3.45E2,1.41E2,9.3E2,7.5E1],"tree_param":{"num_deleted":"0","num_feature":"12","num_nodes":"15","size_leaf_vector":"1"}},{"base_weights":[-1.0229902E-2,7.592558E-1,-8.202481E0,2.892638E0,-2.913894E0,-8.546557E0,1.0376544E0,-2.3923421E-1,4.7027847E-1,-1.340393E-1,-5.659978E-1,-1.0831835E0,-7.309632E-1,1.2907213E0,-8.6655235E-1],"categories":[],"categories_nodes":[],"categories_segments":[],"categories_sizes":[],"default_left":[0,0,0,0,0,0,0,0,0,0,0,0,0,0,0],"id":18,"left_children":[1,3,5,7,9,11,13,-1,-1,-1,-1,-1,-1,-1,-1],"loss_changes":[1.4536533E4,1.6527207E4,6.383721E2,1.2773078E4,3.3411606E3,4.6072754E2,1.0332273E3,0E0,0E0,0E0,0E0,0E0,0E0,0E0,0E0],"parents":[2147483647,0,0,1,1,2,2,3,3,4,4,5,5,6,6],"right_children":[2,4,6,8,10,12,14,-1,-1,-1,-1,-1,-1,-1,-1],"split_conditions":[1E0,1E0,6.7E1,3.4E1,1E0,3.6E1,7.1E1,-2.3923421E-1,4.7027847E-1,-1.340393E-1,-5.659978E-1,-1.0831835E0,-7.309632E-1,1.2907213E0,-8.6655235E-1],"split_indices":[0,3,11,11,9,11,11,0,0,0,0,0,0,0,0],"split_type":[0,0,0,0,0,0,0,0,0,0,0,0,0,0,0],"sum_hessian":[2.304E3,2.107E3,1.97E2,1.333E3,7.74E2,1.9E2,7E0,3.4E2,9.93E2,4.93E2,2.81E2,6.4E1,1.26E2,3E0,4E0],"tree_param":{"num_deleted":"0","num_feature":"12","num_nodes":"15","size_leaf_vector":"1"}},{"base_weights":[-1.00122085E-2,1.5485718E0,-3.5206592E0,-6.153719E0,2.2125027E0,-6.3458395E0,-2.1155264E0,-5.4081726E-1,-1.532775E0,2.7390298E-1,-6.194994E-1,-5.4816204E-1,-1.6459948E0,-5.177803E-1,1.3389793E-1],"categories":[],"categories_nodes":[],"categories_segments":[],"categories_sizes":[],"default_left":[0,0,0,0,0,0,0,0,0,0,0,0,0,0,0],"id":19,"left_children":[1,3,5,7,9,11,13,-1,-1,-1,-1,-1,-1,-1,-1],"loss_changes":[1.2617578E4,8.180335E3,2.8011318E3,7.857422E2,6.5287495E3,1.9638613E3,5.031792E3,0E0,0E0,0E0,0E0,0E0,0E0,0E0,0E0],"parents":[2147483647,0,0,1,1,2,2,3,3,4,4,5,5,6,6],"right_children":[2,4,6,8,10,12,14,-1,-1,-1,-1,-1,-1,-1,-1],"split_conditions":[1E0,2.8E1,1E0,1E0,1E0,6.1E1,4E1,-5.4081726E-1,-1.532775E0,2.7390298E-1,-6.194994E-1,-5.4816204E-1,-1.6459948E0,-5.177803E-1,1.3389793E-1],"split_indices":[9,11,7,0,0,11,11,0,0,0,0,0,0,0,0],"split_type":[0,0,0,0,0,0,0,0,0,0,0,0,0,0,0],"sum_hessian":[2.304E3,1.596E3,7.08E2,1.26E2,1.47E3,2.34E2,4.74E2,1.18E2,8E0,1.384E3,8.6E1,2.17E2,1.7E1,2.51E2,2.23E2],"tree_param":{"num_deleted":"0","num_feature":"12","num_nodes":"15","size_leaf_vector":"1"}},{"base_weights":[-1.1178956E-2,-8.8028765E-1,5.800298E0,-3.6162395E0,7.0132005E-1,7.277334E0,2.4001962E-1,-8.0465525E-1,-2.82363E-1,-7.715126E-2,4.583386E-1,3.7126765E-1,1.0901661E0,5.0772804E-1,-1.0655818E0],"categories":[],"categories_nodes":[],"categories_segments":[],"categories_sizes":[],"default_left":[0,0,0,0,0,0,0,0,0,0,0,0,0,0,0],"id":20,"left_children":[1,3,5,7,9,11,13,-1,-1,-1,-1,-1,-1,-1,-1],"loss_changes":[1.1647212E4,8.682904E3,2.4620723E3,2.5582393E3,7.276366E3,3.0214443E3,3.427287E3,0E0,0E0,0E0,0E0,0E0,0E0,0E0,0E0],"parents":[2147483647,0,0,1,1,2,2,3,3,4,4,5,5,6,6],"right_children":[2,4,6,8,10,12,14,-1,-1,-1,-1,-1,-1,-1,-1],"split_conditions":[1E0,3.8E1,5.5E1,2.4E1,1E0,4.2E1,1E0,-8.0465525E-1,-2.82363E-1,-7.715126E-2,4.583386E-1,3.7126765E-1,1.0901661E0,5.0772804E-1,-1.0655818E0],"split_indices":[1,11,11,11,2,11,5,0,0,0,0,0,0,0,0],"split_type":[0,0,0,0,0,0,0,0,0,0,0,0,0,0,0],"sum_hessian":[2.304E3,2.005E3,2.99E2,7.34E2,1.271E3,2.36E2,6.3E1,1.1E2,6.24E2,9.22E2,3.49E2,1.2E2,1.16E2,4.4E1,1.9E1],"tree_param":{"num_deleted":"0","num_feature":"12","num_nodes":"15","size_leaf_vector":"1"}},{"base_weights":[-9.975482E-3,6.141184E-1,-6.6543183E0,2.386607E0,-2.4376414E0,-6.9679217E0,1.6647544E0,-6.141363E-1,3.1051466E-1,-4.9363866E-1,-1.0142373E-1,-1.7873394E-1,-7.399294E-1,8.38021E-1,-1.2321075E0],"categories":[],"categories_nodes":[],"categories_segments":[],"categories_sizes":[],"default_left":[0,0,0,0,0,0,0,0,0,0,0,0,0,0,0],"id":21,"left_children":[1,3,5,7,9,11,13,-1,-1,-1,-1,-1,-1,-1,-1],"loss_changes":[9.562216E3,1.1408432E4,5.281592E2,8.1934E3,2.7514546E3,4.1361328E2,8.546228E2,0E0,0E0,0E0,0E0,0E0,0E0,0E0,0E0],"parents":[2147483647,0,0,1,1,2,2,3,3,4,4,5,5,6,6],"right_children":[2,4,6,8,10,12,14,-1,-1,-1,-1,-1,-1,-1,-1],"split_conditions":[1E0,1E0,6.7E1,2.7E1,1E0,2.5E1,7.2E1,-6.141363E-1,3.1051466E-1,-4.9363866E-1,-1.0142373E-1,-1.7873394E-1,-7.399294E-1,8.38021E-1,-1.2321075E0],"split_indices":[0,3,11,11,7,11,11,0,0,0,0,0,0,0,0],"split_type":[0,0,0,0,0,0,0,0,0,0,0,0,0,0,0],"sum_hessian":[2.304E3,2.107E3,1.97E2,1.333E3,7.74E2,1.9E2,7E0,1.03E2,1.23E3,2.8E2,4.94E2,1.5E1,1.75E2,5E0,2E0],"tree_param":{"num_deleted":"0","num_feature":"12","num_nodes":"15","size_leaf_vector":"1"}},{"base_weights":[-9.938166E-3,1.291678E0,-2.9417732E0,5.1242065E-1,5.6955934E0,-5.332495E0,-1.7528017E0,-7.017273E-1,9.518401E-2,7.602984E-1,-1.1777079E-1,-4.5118856E-1,-1.4974736E0,-4.717414E-1,5.5463184E-2],"categories":[],"categories_nodes":[],"categories_segments":[],"categories_sizes":[],"default_left":[0,0,0,0,0,0,0,0,0,0,0,0,0,0,0],"id":22,"left_children":[1,3,5,7,9,11,13,-1,-1,-1,-1,-1,-1,-1,-1],"loss_changes":[8.799965E3,5.4776387E3,2.0059858E3,4.4998853E3,3.15537E3,1.7918765E3,3.2519233E3,0E0,0E0,0E0,0E0,0E0,0E0,0E0,0E0],"parents":[2147483647,0,0,1,1,2,2,3,3,4,4,5,5,6,6],"right_children":[2,4,6,8,10,12,14,-1,-1,-1,-1,-1,-1,-1,-1],"split_conditions":[1E0,1E0,1E0,2.6E1,5.4E1,6.1E1,3.6E1,-7.017273E-1,9.518401E-2,7.602984E-1,-1.1777079E-1,-4.5118856E-1,-1.4974736E0,-4.717414E-1,5.5463184E-2],"split_indices":[9,1,7,11,11,11,11,0,0,0,0,0,0,0,0],"split_type":[0,0,0,0,0,0,0,0,0,0,0,0,0,0,0],"sum_hessian":[2.304E3,1.596E3,7.08E2,1.357E3,2.39E2,2.34E2,4.74E2,7.4E1,1.283E3,1.87E2,5.2E1,2.17E2,1.7E1,2.07E2,2.67E2],"tree_param":{"num_deleted":"0","num_feature":"12","num_nodes":"15","size_leaf_vector":"1"}},{"base_weights":[-9.955532E-3,-2.4654648E0,1.3297191E0,-3.3095756E-1,-4.0748324E0,-1.9298208E0,2.9063256E0,-4.0112144E-1,9.15711E-2,-8.013611E-1,-3.3069268E-1,-4.6469036E-2,-5.486196E-1,3.8320005E-1,-8.433044E-2],"categories":[],"categories_nodes":[],"categories_segments":[],"categories_sizes":[],"default_left":[0,0,0,0,0,0,0,0,0,0,0,0,0,0,0],"id":23,"left_children":[1,3,5,7,9,11,13,-1,-1,-1,-1,-1,-1,-1,-1],"loss_changes":[7.585768E3,2.7949102E3,7.6730137E3,1.6140823E3,1.3769194E3,2.5349902E3,3.494996E3,0E0,0E0,0E0,0E0,0E0,0E0,0E0,0E0],"parents":[2147483647,0,0,1,1,2,2,3,3,4,4,5,5,6,6],"right_children":[2,4,6,8,10,12,14,-1,-1,-1,-1,-1,-1,-1,-1],"split_conditions":[3.8E1,1E0,1E0,2.8E1,2.4E1,1E0,5.5E1,-4.0112144E-1,9.15711E-2,-8.013611E-1,-3.3069268E-1,-4.6469036E-2,-5.486196E-1,3.8320005E-1,-8.433044E-2],"split_indices":[11,5,7,11,11,9,11,0,0,0,0,0,0,0,0],"split_type":[0,0,0,0,0,0,0,0,0,0,0,0,0,0,0],"sum_hessian":[2.304E3,8.13E2,1.491E3,3.5E2,4.63E2,4.86E2,1.005E3,8.8E1,2.62E2,7.4E1,3.89E2,3.45E2,1.41E2,8.06E2,1.99E2],"tree_param":{"num_deleted":"0","num_feature":"12","num_nodes":"15","size_leaf_vector":"1"}},{"base_weights":[-9.712974E-3,5.2998763E-1,-5.755567E0,2.0370696E0,-2.0648217E0,-6.048555E0,1.9589553E0,-1.2832032E-1,3.3223343E-1,-4.0928426E-1,-9.093901E-2,-5.2715518E-2,-6.5161335E-1,8.0159485E-1,-1.0808015E0],"categories":[],"categories_nodes":[],"categories_segments":[],"categories_sizes":[],"default_left":[0,0,0,0,0,0,0,0,0,0,0,0,0,0,0],"id":24,"left_children":[1,3,5,7,9,11,13,-1,-1,-1,-1,-1,-1,-1,-1],"loss_changes":[7.15095E3,8.24773E3,4.5938037E2,5.697014E3,1.8122888E3,4.89667E2,7.052721E2,0E0,0E0,0E0,0E0,0E0,0E0,0E0,0E0],"parents":[2147483647,0,0,1,1,2,2,3,3,4,4,5,5,6,6],"right_children":[2,4,6,8,10,12,14,-1,-1,-1,-1,-1,-1,-1,-1],"split_conditions":[1E0,1E0,6.7E1,3.5E1,1E0,2.5E1,7.2E1,-1.2832032E-1,3.3223343E-1,-4.0928426E-1,-9.093901E-2,-5.2715518E-2,-6.5161335E-1,8.0159485E-1,-1.0808015E0],"split_indices":[0,3,11,11,7,11,11,0,0,0,0,0,0,0,0],"split_type":[0,0,0,0,0,0,0,0,0,0,0,0,0,0,0],"sum_hessian":[2.304E3,2.107E3,1.97E2,1.333E3,7.74E2,1.9E2,7E0,3.72E2,9.61E2,2.8E2,4.94E2,1.5E1,1.75E2,5E0,2E0],"tree_param":{"num_deleted":"0","num_feature":"12","num_nodes":"15","size_leaf_vector":"1"}},{"base_weights":[-9.296083E-3,-6.295878E-1,4.138419E0,-1.5402439E0,1.902913E0,5.292951E0,-2.0161945E-1,-9.748038E-2,-5.1849794E-1,2.537546E-1,-1.6325101E0,2.333643E-1,8.308193E-1,4.1686317E-1,-1.0024604E0],"categories":[],"categories_nodes":[],"categories_segments":[],"categories_sizes":[],"default_left":[0,0,0,0,0,0,0,0,0,0,0,0,0,0,0],"id":25,"left_children":[1,3,5,7,9,11,13,-1,-1,-1,-1,-1,-1,-1,-1],"loss_changes":[5.9328945E3,4.6292427E3,1.5042808E3,3.0368042E3,6.184086E3,2.09537E3,2.7892385E3,0E0,0E0,0E0,0E0,0E0,0E0,0E0,0E0],"parents":[2147483647,0,0,1,1,2,2,3,3,4,4,5,5,6,6],"right_children":[2,4,6,8,10,12,14,-1,-1,-1,-1,-1,-1,-1,-1],"split_conditions":[1E0,1E0,5.5E1,1E0,6.3E1,4.2E1,1E0,-9.748038E-2,-5.1849794E-1,2.537546E-1,-1.6325101E0,2.333643E-1,8.308193E-1,4.1686317E-1,-1.0024604E0],"split_indices":[1,2,11,0,11,11,5,0,0,0,0,0,0,0,0],"split_type":[0,0,0,0,0,0,0,0,0,0,0,0,0,0,0],"sum_hessian":[2.304E3,2.005E3,2.99E2,1.475E3,5.3E2,2.36E2,6.3E1,1.278E3,1.97E2,5.13E2,1.7E1,1.2E2,1.16E2,4.4E1,1.9E1],"tree_param":{"num_deleted":"0","num_feature":"12","num_nodes":"15","size_leaf_vector":"1"}},{"base_weights":[-9.024063E-3,1.0168849E0,-2.3198388E0,-1.2761637E0,2.0122337E0,-3.4055634E0,-8.5379994E-1,6.6073336E-2,-3.2318762E-1,-2.970585E-2,3.0486485E-1,-7.5793606E-1,-2.9676992E-1,-2.1181774E-1,5.907334E-1],"categories":[],"categories_nodes":[],"categories_segments":[],"categories_sizes":[],"default_left":[0,0,0,0,0,0,0,0,0,0,0,0,0,0,0],"id":26,"left_children":[1,3,5,7,9,11,13,-1,-1,-1,-1,-1,-1,-1,-1],"loss_changes":[5.4667896E3,3.6475342E3,1.1256182E3,1.8355342E3,2.6671357E3,7.2132227E2,2.6027463E3,0E0,0E0,0E0,0E0,0E0,0E0,0E0,0E0],"parents":[2147483647,0,0,1,1,2,2,3,3,4,4,5,5,6,6],"right_children":[2,4,6,8,10,12,14,-1,-1,-1,-1,-1,-1,-1,-1],"split_conditions":[1E0,3.8E1,4.2E1,1E0,1E0,2.2E1,1E0,6.6073336E-2,-3.2318762E-1,-2.970585E-2,3.0486485E-1,-7.5793606E-1,-2.9676992E-1,-2.1181774E-1,5.907334E-1],"split_indices":[9,11,11,5,7,11,4,0,0,0,0,0,0,0,0],"split_type":[0,0,0,0,0,0,0,0,0,0,0,0,0,0,0],"sum_hessian":[2.304E3,1.596E3,7.08E2,4.83E2,1.113E3,4.06E2,3.02E2,2.43E2,2.4E2,3.45E2,7.68E2,3.7E1,3.69E2,2.55E2,4.7E1],"tree_param":{"num_deleted":"0","num_feature":"12","num_nodes":"15","size_leaf_vector":"1"}},{"base_weights":[-8.4066475E-3,-5.5427885E-1,3.641687E0,-3.972218E-1,-1.2983593E1,3.3015606E0,1.9757616E1,-2.27746E-1,7.1044825E-2,-8.148138E-1,-2.6937845E0,4.6833634E-1,-2.30503E-1,2.6257944E0,-6.3720095E-1],"categories":[],"categories_nodes":[],"categories_segments":[],"categories_sizes":[],"default_left":[0,0,0,0,0,0,0,0,0,0,0,0,0,0,0],"id":27,"left_children":[1,3,5,7,9,11,13,-1,-1,-1,-1,-1,-1,-1,-1],"loss_changes":[4.594696E3,3.9107788E3,1.5792041E3,4.129496E3,1.4673853E3,2.2962202E3,1.1864226E3,0E0,0E0,0E0,0E0,0E0,0E0,0E0,0E0],"parents":[2147483647,0,0,1,1,2,2,3,3,4,4,5,5,6,6],"right_children":[2,4,6,8,10,12,14,-1,-1,-1,-1,-1,-1,-1,-1],"split_conditions":[1E0,6.9E1,6.7E1,3.8E1,1E0,5.5E1,1E0,-2.27746E-1,7.1044825E-2,-8.148138E-1,-2.6937845E0,4.6833634E-1,-2.30503E-1,2.6257944E0,-6.3720095E-1],"split_indices":[1,11,11,11,2,11,5,0,0,0,0,0,0,0,0],"split_type":[0,0,0,0,0,0,0,0,0,0,0,0,0,0,0],"sum_hessian":[2.304E3,2.005E3,2.99E2,1.981E3,2.4E1,2.94E2,5E0,7.34E2,1.247E3,1.9E1,5E0,2.36E2,5.8E1,4E0,1E0],"tree_param":{"num_deleted":"0","num_feature":"12","num_nodes":"15","size_leaf_vector":"1"}},{"base_weights":[-8.19085E-3,4.139215E-1,-4.502154E0,1.6136599E0,-1.6517106E0,7.035067E-1,-4.9326916E0,-7.8316456E-1,1.9267671E-1,-3.4336624E-1,-6.3680135E-2,-7.482926E-1,3.8672357E0,-7.871133E-1,-3.799447E-1],"categories":[],"categories_nodes":[],"categories_segments":[],"categories_sizes":[],"default_left":[0,0,0,0,0,0,0,0,0,0,0,0,0,0,0],"id":28,"left_children":[1,3,5,7,9,11,13,-1,-1,-1,-1,-1,-1,-1,-1],"loss_changes":[4.3743496E3,5.226749E3,4.4723462E2,3.9602524E3,1.399416E3,5.262653E3,5.794795E2,0E0,0E0,0E0,0E0,0E0,0E0,0E0,0E0],"parents":[2147483647,0,0,1,1,2,2,3,3,4,4,5,5,6,6],"right_children":[2,4,6,8,10,12,14,-1,-1,-1,-1,-1,-1,-1,-1],"split_conditions":[1E0,1E0,2.5E1,2.4E1,1E0,2.4E1,3.6E1,-7.8316456E-1,1.9267671E-1,-3.4336624E-1,-6.3680135E-2,-7.482926E-1,3.8672357E0,-7.871133E-1,-3.799447E-1],"split_indices":[0,3,11,11,7,11,11,0,0,0,0,0,0,0,0],"split_type":[0,0,0,0,0,0,0,0,0,0,0,0,0,0,0],"sum_hessian":[2.304E3,2.107E3,1.97E2,1.333E3,7.74E2,1.5E1,1.82E2,4.2E1,1.291E3,2.8E2,4.94E2,1.3E1,2E0,4.9E1,1.33E2],"tree_param":{"num_deleted":"0","num_feature":"12","num_nodes":"15","size_leaf_vector":"1"}},{"base_weights":[-6.9583966E-3,8.5534155E-1,-1.9492519E0,1.1802043E0,-4.293331E0,-1.6248772E0,-5.8537073E0,-7.777572E-2,2.0580749E-1,-8.061447E-1,-2.2514077E-1,-2.1950825E-1,3.7771365E-1,-9.475355E-1,9.16504E-1],"categories":[],"categories_nodes":[],"categories_segments":[],"categories_sizes":[],"default_left":[0,0,0,0,0,0,0,0,0,0,0,0,0,0,0],"id":29,"left_children":[1,3,5,7,9,11,13,-1,-1,-1,-1,-1,-1,-1,-1],"loss_changes":[3.8621729E3,2.6762275E3,8.8844165E2,2.5850125E3,7.127997E2,2.0289396E3,3.024043E3,0E0,0E0,0E0,0E0,0E0,0E0,0E0,0E0],"parents":[2147483647,0,0,1,1,2,2,3,3,4,4,5,5,6,6],"right_children":[2,4,6,8,10,12,14,-1,-1,-1,-1,-1,-1,-1,-1],"split_conditions":[1E0,1E0,5.8E1,3.8E1,1E0,5.3E1,1E0,-7.777572E-2,2.0580749E-1,-8.061447E-1,-2.2514077E-1,-2.1950825E-1,3.7771365E-1,-9.475355E-1,9.16504E-1],"split_indices":[9,0,11,11,7,11,1,0,0,0,0,0,0,0,0],"split_type":[0,0,0,0,0,0,0,0,0,0,0,0,0,0,0],"sum_hessian":[2.304E3,1.596E3,7.08E2,1.502E3,9.4E1,6.55E2,5.3E1,4.65E2,1.037E3,3.2E1,6.2E1,5.93E2,6.2E1,4.3E1,1E1],"tree_param":{"num_deleted":"0","num_feature":"12","num_nodes":"15","size_leaf_vector":"1"}},{"base_weights":[-6.601748E-3,-1.9495437E0,7.807615E-1,-4.002004E0,-4.568014E-2,-2.984493E0,1.5178865E0,2.462968E-2,-5.691269E-1,5.5636335E-2,-1.0436448E0,-8.081646E-1,-2.6940843E-1,1.9213246E-1,-3.5281047E-1],"categories":[],"categories_nodes":[],"categories_segments":[],"categories_sizes":[],"default_left":[0,0,0,0,0,0,0,0,0,0,0,0,0,0,0],"id":30,"left_children":[1,3,5,7,9,11,13,-1,-1,-1,-1,-1,-1,-1,-1],"loss_changes":[3.5277136E3,2.5983743E3,4.5590654E3,2.2978838E3,2.1702766E3,3.76417E2,2.801856E3,0E0,0E0,0E0,0E0,0E0,0E0,0E0,0E0],"parents":[2147483647,0,0,1,1,2,2,3,3,4,4,5,5,6,6],"right_children":[2,4,6,8,10,12,14,-1,-1,-1,-1,-1,-1,-1,-1],"split_conditions":[1E0,4.5E1,3E1,3.1E1,6.8E1,2E1,1E0,2.462968E-2,-5.691269E-1,5.5636335E-2,-1.0436448E0,-8.081646E-1,-2.6940843E-1,1.9213246E-1,-3.5281047E-1],"split_indices":[7,11,11,11,11,11,0,0,0,0,0,0,0,0,0],"split_type":[0,0,0,0,0,0,0,0,0,0,0,0,0,0,0],"sum_hessian":[2.304E3,6.64E2,1.64E3,3.19E2,3.45E2,2.68E2,1.372E3,9.1E1,2.28E2,3.27E2,1.8E1,1.3E1,2.55E2,1.271E3,1.01E2],"tree_param":{"num_deleted":"0","num_feature":"12","num_nodes":"15","size_leaf_vector":"1"}},{"base_weights":[-7.142356E-3,7.3968834E-1,-1.6893446E0,-4.4101205E0,9.99909E-1,-1.397895E0,-5.198634E0,-1.1105547E0,-3.0031872E-1,-7.43172E-2,1.661152E-1,-1.8934232E-1,3.2964167E-1,-8.478713E-1,8.394286E-1],"categories":[],"categories_nodes":[],"categories_segments":[],"categories_sizes":[],"default_left":[0,0,0,0,0,0,0,0,0,0,0,0,0,0,0],"id":31,"left_children":[1,3,5,7,9,11,13,-1,-1,-1,-1,-1,-1,-1,-1],"loss_changes":[2.8970679E3,2.1445278E3,7.1788477E2,6.919894E2,1.7543392E3,1.5322048E3,2.478809E3,0E0,0E0,0E0,0E0,0E0,0E0,0E0,0E0],"parents":[2147483647,0,0,1,1,2,2,3,3,4,4,5,5,6,6],"right_children":[2,4,6,8,10,12,14,-1,-1,-1,-1,-1,-1,-1,-1],"split_conditions":[1E0,2.6E1,5.8E1,1E0,1E0,5.3E1,1E0,-1.1105547E0,-3.0031872E-1,-7.43172E-2,1.661152E-1,-1.8934232E-1,3.2964167E-1,-8.478713E-1,8.394286E-1],"split_indices":[9,11,11,7,7,11,1,0,0,0,0,0,0,0,0],"split_type":[0,0,0,0,0,0,0,0,0,0,0,0,0,0,0],"sum_hessian":[2.304E3,1.596E3,7.08E2,7.6E1,1.52E3,6.55E2,5.3E1,1.2E1,6.4E1,4.18E2,1.102E3,5.93E2,6.2E1,4.3E1,1E1],"tree_param":{"num_deleted":"0","num_feature":"12","num_nodes":"15","size_leaf_vector":"1"}},{"base_weights":[-6.9445116E-3,-4.190331E-1,2.7485778E0,-3.2695484E-1,-1.5692127E1,2.4440029E0,1.7265413E1,-1.02730565E-1,1.6208518E-1,-1.0711359E0,-2.2975824E0,3.7680712E-1,-2.9161358E-1,2.3320854E0,-6.505894E-1],"categories":[],"categories_nodes":[],"categories_segments":[],"categories_sizes":[],"default_left":[0,0,0,0,0,0,0,0,0,0,0,0,0,0,0],"id":32,"left_children":[1,3,5,7,9,11,13,-1,-1,-1,-1,-1,-1,-1,-1],"loss_changes":[2.618524E3,2.8159478E3,1.2842424E3,2.7231401E3,1.8923853E2,2.104659E3,1.01539734E3,0E0,0E0,0E0,0E0,0E0,0E0,0E0,0E0],"parents":[2147483647,0,0,1,1,2,2,3,3,4,4,5,5,6,6],"right_children":[2,4,6,8,10,12,14,-1,-1,-1,-1,-1,-1,-1,-1],"split_conditions":[1E0,7.3E1,6.7E1,1E0,1E0,5.5E1,1E0,-1.02730565E-1,1.6208518E-1,-1.0711359E0,-2.2975824E0,3.7680712E-1,-2.9161358E-1,2.3320854E0,-6.505894E-1],"split_indices":[1,11,11,2,2,11,5,0,0,0,0,0,0,0,0],"split_type":[0,0,0,0,0,0,0,0,0,0,0,0,0,0,0],"sum_hessian":[2.304E3,2.005E3,2.99E2,1.994E3,1.1E1,2.94E2,5E0,1.467E3,5.27E2,8E0,3E0,2.36E2,5.8E1,4E0,1E0],"tree_param":{"num_deleted":"0","num_feature":"12","num_nodes":"15","size_leaf_vector":"1"}},{"base_weights":[-6.919803E-3,-1.3813453E0,7.4293894E-1,3.773654E-2,-2.4518547E0,-1.1404428E0,1.653937E0,-8.8355236E-2,2.7192917E-1,-9.3286556E-1,-2.201341E-1,-4.2143056E-1,1.24380635E-2,3.7357676E-1,5.079869E-2],"categories":[],"categories_nodes":[],"categories_segments":[],"categories_sizes":[],"default_left":[0,0,0,0,0,0,0,0,0,0,0,0,0,0,0],"id":33,"left_children":[1,3,5,7,9,11,13,-1,-1,-1,-1,-1,-1,-1,-1],"loss_changes":[2.3766167E3,1.2366726E3,2.5617957E3,8.695436E2,7.7881274E2,1.8939283E3,2.3980903E3,0E0,0E0,0E0,0E0,0E0,0E0,0E0,0E0],"parents":[2147483647,0,0,1,1,2,2,3,3,4,4,5,5,6,6],"right_children":[2,4,6,8,10,12,14,-1,-1,-1,-1,-1,-1,-1,-1],"split_conditions":[3.8E1,1E0,1E0,1E0,2E1,4.5E1,4.5E1,-8.8355236E-2,2.7192917E-1,-9.3286556E-1,-2.201341E-1,-4.2143056E-1,1.24380635E-2,3.7357676E-1,5.079869E-2],"split_indices":[11,5,7,4,11,11,11,0,0,0,0,0,0,0,0],"split_type":[0,0,0,0,0,0,0,0,0,0,0,0,0,0,0],"sum_hessian":[2.304E3,8.13E2,1.491E3,3.5E2,4.63E2,4.86E2,1.005E3,2.61E2,8.9E1,1.5E1,4.48E2,1.41E2,3.45E2,3.56E2,6.49E2],"tree_param":{"num_deleted":"0","num_feature":"12","num_nodes":"15","size_leaf_vector":"1"}},{"base_weights":[-6.6408105E-3,2.9074338E-1,-3.1726978E0,1.2074933E0,-1.2876245E0,-3.500164E0,5.04215E0,-6.282744E-1,1.4558469E-1,-1.12095706E-1,-9.657378E-1,1.9893114E-1,-3.9793202E-1,9.947198E-1,-6.4486635E-1],"categories":[],"categories_nodes":[],"categories_segments":[],"categories_sizes":[],"default_left":[0,0,0,0,0,0,0,0,0,0,0,0,0,0,0],"id":34,"left_children":[1,3,5,7,9,11,13,-1,-1,-1,-1,-1,-1,-1,-1],"loss_changes":[2.1711614E3,3.0517642E3,5.5028564E2,2.4906885E3,1.070273E3,5.103064E2,5.1505005E2,0E0,0E0,0E0,0E0,0E0,0E0,0E0,0E0],"parents":[2147483647,0,0,1,1,2,2,3,3,4,4,5,5,6,6],"right_children":[2,4,6,8,10,12,14,-1,-1,-1,-1,-1,-1,-1,-1],"split_conditions":[1E0,1E0,6.7E1,2.4E1,6.6E1,2.5E1,7.2E1,-6.282744E-1,1.4558469E-1,-1.12095706E-1,-9.657378E-1,1.9893114E-1,-3.9793202E-1,9.947198E-1,-6.4486635E-1],"split_indices":[0,3,11,11,11,11,11,0,0,0,0,0,0,0,0],"split_type":[0,0,0,0,0,0,0,0,0,0,0,0,0,0,0],"sum_hessian":[2.304E3,2.107E3,1.97E2,1.333E3,7.74E2,1.9E2,7E0,4.2E1,1.291E3,7.6E2,1.4E1,1.5E1,1.75E2,5E0,2E0],"tree_param":{"num_deleted":"0","num_feature":"12","num_nodes":"15","size_leaf_vector":"1"}},{"base_weights":[-6.5868907E-3,6.0111237E-1,-1.3754009E0,-1.2621125E0,1.1799155E0,-1.0812184E0,-4.3233156E0,5.4302495E-2,-3.079674E-1,1.9428585E-1,-4.591266E-2,-1.540278E-1,4.0841156E-1,-6.5487176E-1,5.8658177E-1],"categories":[],"categories_nodes":[],"categories_segments":[],"categories_sizes":[],"default_left":[0,0,0,0,0,0,0,0,0,0,0,0,0,0,0],"id":35,"left_children":[1,3,5,7,9,11,13,-1,-1,-1,-1,-1,-1,-1,-1],"loss_changes":[1.9181888E3,1.7237588E3,6.1018823E2,1.2451516E3,1.5252461E3,1.5380836E3,1.4896082E3,0E0,0E0,0E0,0E0,0E0,0E0,0E0,0E0],"parents":[2147483647,0,0,1,1,2,2,3,3,4,4,5,5,6,6],"right_children":[2,4,6,8,10,12,14,-1,-1,-1,-1,-1,-1,-1,-1],"split_conditions":[1E0,3.5E1,5.7E1,1E0,1E0,5.3E1,1E0,5.4302495E-2,-3.079674E-1,1.9428585E-1,-4.591266E-2,-1.540278E-1,4.0841156E-1,-6.5487176E-1,5.8658177E-1],"split_indices":[9,11,11,5,3,11,1,0,0,0,0,0,0,0,0],"split_type":[0,0,0,0,0,0,0,0,0,0,0,0,0,0,0],"sum_hessian":[2.304E3,1.596E3,7.08E2,3.78E2,1.218E3,6.45E2,6.3E1,1.9E2,1.88E2,8.31E2,3.87E2,5.93E2,5.2E1,5.2E1,1.1E1],"tree_param":{"num_deleted":"0","num_feature":"12","num_nodes":"15","size_leaf_vector":"1"}},{"base_weights":[-5.892035E-3,-1.3828924E0,5.5212814E-1,-3.012168E0,1.2794895E-1,-1.5702238E0,1.2625809E0,1.0047076E-1,-4.612781E-1,3.9874244E-1,-1.2241162E-1,2.1017319E-2,-2.9254413E-1,1.7972256E-1,-1.4998256E-1],"categories":[],"categories_nodes":[],"categories_segments":[],"categories_sizes":[],"default_left":[0,0,0,0,0,0,0,0,0,0,0,0,0,0,0],"id":36,"left_children":[1,3,5,7,9,11,13,-1,-1,-1,-1,-1,-1,-1,-1],"loss_changes":[1.7719114E3,1.6373339E3,2.4763328E3,2.062063E3,1.8103999E3,9.946988E2,1.8192898E3,0E0,0E0,0E0,0E0,0E0,0E0,0E0,0E0],"parents":[2147483647,0,0,1,1,2,2,3,3,4,4,5,5,6,6],"right_children":[2,4,6,8,10,12,14,-1,-1,-1,-1,-1,-1,-1,-1],"split_conditions":[1E0,4.5E1,3.3E1,3.1E1,5E1,1E0,5.5E1,1.0047076E-1,-4.612781E-1,3.9874244E-1,-1.2241162E-1,2.1017319E-2,-2.9254413E-1,1.7972256E-1,-1.4998256E-1],"split_indices":[7,11,11,11,11,5,11,0,0,0,0,0,0,0,0],"split_type":[0,0,0,0,0,0,0,0,0,0,0,0,0,0,0],"sum_hessian":[2.304E3,6.64E2,1.64E3,3.19E2,3.45E2,4.11E2,1.229E3,9.1E1,2.28E2,8.9E1,2.56E2,1.78E2,2.33E2,1.03E3,1.99E2],"tree_param":{"num_deleted":"0","num_feature":"12","num_nodes":"15","size_leaf_vector":"1"}},{"base_weights":[-5.445037E-3,2.5623107E-1,-2.791343E0,1.0019096E0,-1.0276288E0,-3.1012723E0,4.9571433E0,-5.475263E-1,1.2167057E-1,-2.642296E-1,-1.4426936E-2,2.088681E-1,-3.5554656E-1,9.3552107E-1,-5.491373E-1],"categories":[],"categories_nodes":[],"categories_segments":[],"categories_sizes":[],"default_left":[0,0,0,0,0,0,0,0,0,0,0,0,0,0,0],"id":37,"left_children":[1,3,5,7,9,11,13,-1,-1,-1,-1,-1,-1,-1,-1],"loss_changes":[1.6810669E3,2.0191162E3,4.9086755E2,1.8626177E3,1.1050256E3,4.576593E2,4.1899918E2,0E0,0E0,0E0,0E0,0E0,0E0,0E0,0E0],"parents":[2147483647,0,0,1,1,2,2,3,3,4,4,5,5,6,6],"right_children":[2,4,6,8,10,12,14,-1,-1,-1,-1,-1,-1,-1,-1],"split_conditions":[1E0,1E0,6.7E1,2.4E1,1E0,2.5E1,7.2E1,-5.475263E-1,1.2167057E-1,-2.642296E-1,-1.4426936E-2,2.088681E-1,-3.5554656E-1,9.3552107E-1,-5.491373E-1],"split_indices":[0,3,11,11,5,11,11,0,0,0,0,0,0,0,0],"split_type":[0,0,0,0,0,0,0,0,0,0,0,0,0,0,0],"sum_hessian":[2.304E3,2.107E3,1.97E2,1.333E3,7.74E2,1.9E2,7E0,4.2E1,1.291E3,2.73E2,5.01E2,1.5E1,1.75E2,5E0,2E0],"tree_param":{"num_deleted":"0","num_feature":"12","num_nodes":"15","size_leaf_vector":"1"}},{"base_weights":[-5.1040854E-3,5.126645E-1,-1.1713542E0,7.356772E-1,-3.0210276E0,-9.336053E-1,-4.0378714E0,8.776107E-2,-6.032182E-1,-6.0744876E-1,-1.3736431E-1,-1.3219129E-1,2.742398E-1,-6.647761E-1,6.7687654E-1],"categories":[],"categories_nodes":[],"categories_segments":[],"categories_sizes":[],"default_left":[0,0,0,0,0,0,0,0,0,0,0,0,0,0,0],"id":38,"left_children":[1,3,5,7,9,11,13,-1,-1,-1,-1,-1,-1,-1,-1],"loss_changes":[1.3924695E3,1.2607515E3,4.794217E2,1.4490537E3,4.6952698E2,9.4001245E2,1.5680199E3,0E0,0E0,0E0,0E0,0E0,0E0,0E0,0E0],"parents":[2147483647,0,0,1,1,2,2,3,3,4,4,5,5,6,6],"right_children":[2,4,6,8,10,12,14,-1,-1,-1,-1,-1,-1,-1,-1],"split_conditions":[1E0,1E0,5.8E1,6.5E1,1E0,5.3E1,1E0,8.776107E-2,-6.032182E-1,-6.0744876E-1,-1.3736431E-1,-1.3219129E-1,2.742398E-1,-6.647761E-1,6.7687654E-1],"split_indices":[9,0,11,11,7,11,1,0,0,0,0,0,0,0,0],"split_type":[0,0,0,0,0,0,0,0,0,0,0,0,0,0,0],"sum_hessian":[2.304E3,1.596E3,7.08E2,1.502E3,9.4E1,6.55E2,5.3E1,1.472E3,3E1,3.2E1,6.2E1,5.93E2,6.2E1,4.3E1,1E1],"tree_param":{"num_deleted":"0","num_feature":"12","num_nodes":"15","size_leaf_vector":"1"}},{"base_weights":[-5.0729956E-3,-1.0324049E0,5.554185E-1,-7.0282996E-1,-5.089243E0,9.4899994E-1,-1.7866864E0,-9.82764E-2,3.258297E-1,-1.4327018E-1,-1.198586E0,2.4088092E-2,3.1879014E-1,-2.0930681E-2,-7.9122007E-1],"categories":[],"categories_nodes":[],"categories_segments":[],"categories_sizes":[],"default_left":[0,0,0,0,0,0,0,0,0,0,0,0,0,0,0],"id":39,"left_children":[1,3,5,7,9,11,13,-1,-1,-1,-1,-1,-1,-1,-1],"loss_changes":[1.3278171E3,1.0847676E3,1.3770347E3,8.392783E2,1.5211116E3,2.0253844E3,2.07573E3,0E0,0E0,0E0,0E0,0E0,0E0,0E0,0E0],"parents":[2147483647,0,0,1,1,2,2,3,3,4,4,5,5,6,6],"right_children":[2,4,6,8,10,12,14,-1,-1,-1,-1,-1,-1,-1,-1],"split_conditions":[3.8E1,3.7E1,5.8E1,3.6E1,1E0,1E0,1E0,-9.82764E-2,3.258297E-1,-1.4327018E-1,-1.198586E0,2.4088092E-2,3.1879014E-1,-2.0930681E-2,-7.9122007E-1],"split_indices":[11,11,11,11,3,2,2,0,0,0,0,0,0,0,0],"split_type":[0,0,0,0,0,0,0,0,0,0,0,0,0,0,0],"sum_hessian":[2.304E3,8.13E2,1.491E3,7.53E2,6E1,1.277E3,2.14E2,7.04E2,4.9E1,4E1,2E1,9.71E2,3.06E2,1.71E2,4.3E1],"tree_param":{"num_deleted":"0","num_feature":"12","num_nodes":"15","size_leaf_vector":"1"}},{"base_weights":[-5.252543E-3,-2.918112E-1,1.9108871E0,-2.1627073E-1,-1.2826096E1,1.7085694E0,2.1370811E0,-6.4802215E-2,9.845385E-2,-8.1034625E-1,-2.0245497E0,2.8317118E-1,-2.61229E-1],"categories":[],"categories_nodes":[],"categories_segments":[],"categories_sizes":[],"default_left":[0,0,0,0,0,0,0,0,0,0,0,0,0],"id":40,"left_children":[1,3,5,7,9,11,-1,-1,-1,-1,-1,-1,-1],"loss_changes":[1.2662018E3,1.8965983E3,1.1446122E3,1.0349479E3,2.5641077E2,1.4535734E3,0E0,0E0,0E0,0E0,0E0,0E0,0E0],"parents":[2147483647,0,0,1,1,2,2,3,3,4,4,5,5],"right_children":[2,4,6,8,10,12,-1,-1,-1,-1,-1,-1,-1],"split_conditions":[1E0,7.3E1,7.3E1,1E0,1E0,5.5E1,2.1370811E0,-6.4802215E-2,9.845385E-2,-8.1034625E-1,-2.0245497E0,2.8317118E-1,-2.61229E-1],"split_indices":[1,11,11,2,2,11,0,0,0,0,0,0,0],"split_type":[0,0,0,0,0,0,0,0,0,0,0,0,0],"sum_hessian":[2.304E3,2.005E3,2.99E2,1.994E3,1.1E1,2.97E2,2E0,1.467E3,5.27E2,8E0,3E0,2.36E2,6.1E1],"tree_param":{"num_deleted":"0","num_feature":"12","num_nodes":"13","size_leaf_vector":"1"}},{"base_weights":[-5.0056153E-3,-1.1232021E0,4.4813615E-1,-2.5771658E0,2.2475062E-1,-1.8799936E0,9.039401E-1,1.1786368E-1,-4.0747935E-1,3.5238472E-1,-9.314495E-2,-3.7062164E-2,-2.77092E-1,1.1698844E-1,-2.4214056E-1],"categories":[],"categories_nodes":[],"categories_segments":[],"categories_sizes":[],"default_left":[0,0,0,0,0,0,0,0,0,0,0,0,0,0,0],"id":41,"left_children":[1,3,5,7,9,11,13,-1,-1,-1,-1,-1,-1,-1,-1],"loss_changes":[1.1684503E3,1.3038958E3,1.7430803E3,1.8047368E3,1.3230703E3,3.60708E2,1.217055E3,0E0,0E0,0E0,0E0,0E0,0E0,0E0,0E0],"parents":[2147483647,0,0,1,1,2,2,3,3,4,4,5,5,6,6],"right_children":[2,4,6,8,10,12,14,-1,-1,-1,-1,-1,-1,-1,-1],"split_conditions":[1E0,4.5E1,3E1,3.1E1,5E1,2.5E1,1E0,1.1786368E-1,-4.0747935E-1,3.5238472E-1,-9.314495E-2,-3.7062164E-2,-2.77092E-1,1.1698844E-1,-2.4214056E-1],"split_indices":[7,11,11,11,11,11,0,0,0,0,0,0,0,0,0],"split_type":[0,0,0,0,0,0,0,0,0,0,0,0,0,0,0],"sum_hessian":[2.304E3,6.64E2,1.64E3,3.19E2,3.45E2,2.68E2,1.372E3,9.1E1,2.28E2,8.9E1,2.56E2,1E2,1.68E2,1.271E3,1.01E2],"tree_param":{"num_deleted":"0","num_feature":"12","num_nodes":"15","size_leaf_vector":"1"}},{"base_weights":[-4.7090966E-3,4.3119624E-1,-9.865654E-1,-1.0238643E0,8.832362E-1,-5.9014235E0,-8.572966E-1,4.260417E-2,-2.483696E-1,9.89074E-2,-6.6582996E-1,-1.0964048E0,3.7942804E-2,-6.1869334E-2,-3.188924E-1],"categories":[],"categories_nodes":[],"categories_segments":[],"categories_sizes":[],"default_left":[0,0,0,0,0,0,0,0,0,0,0,0,0,0,0],"id":42,"left_children":[1,3,5,7,9,11,13,-1,-1,-1,-1,-1,-1,-1,-1],"loss_changes":[9.8695715E2,1.051324E3,4.453952E2,8.0325653E2,9.795666E2,5.7651654E2,3.8301004E2,0E0,0E0,0E0,0E0,0E0,0E0,0E0,0E0],"parents":[2147483647,0,0,1,1,2,2,3,3,4,4,5,5,6,6],"right_children":[2,4,6,8,10,12,14,-1,-1,-1,-1,-1,-1,-1,-1],"split_conditions":[1E0,3.5E1,2E1,1E0,6.9E1,1E0,5.7E1,4.260417E-2,-2.483696E-1,9.89074E-2,-6.6582996E-1,-1.0964048E0,3.7942804E-2,-6.1869334E-2,-3.188924E-1],"split_indices":[9,11,11,5,11,3,11,0,0,0,0,0,0,0,0],"split_type":[0,0,0,0,0,0,0,0,0,0,0,0,0,0,0],"sum_hessian":[2.304E3,1.596E3,7.08E2,3.78E2,1.218E3,1.7E1,6.91E2,1.9E2,1.88E2,1.202E3,1.6E1,9E0,8E0,6.28E2,6.3E1],"tree_param":{"num_deleted":"0","num_feature":"12","num_nodes":"15","size_leaf_vector":"1"}},{"base_weights":[-5.198538E-3,-1.004899E0,3.9992395E-1,-2.2466047E0,2.8544694E-1,-1.1288992E0,9.1169244E-1,1.2027883E-1,-3.5171592E-1,4.3723008E-1,-8.447167E-2,3.3162918E-2,-2.2413166E-1,1.733069E-1,-3.0320102E-2],"categories":[],"categories_nodes":[],"categories_segments":[],"categories_sizes":[],"default_left":[0,0,0,0,0,0,0,0,0,0,0,0,0,0,0],"id":43,"left_children":[1,3,5,7,9,11,13,-1,-1,-1,-1,-1,-1,-1,-1],"loss_changes":[9.339295E2,1.066124E3,1.2849534E3,1.4899462E3,1.5140453E3,6.701267E2,1.2279238E3,0E0,0E0,0E0,0E0,0E0,0E0,0E0,0E0],"parents":[2147483647,0,0,1,1,2,2,3,3,4,4,5,5,6,6],"right_children":[2,4,6,8,10,12,14,-1,-1,-1,-1,-1,-1,-1,-1],"split_conditions":[1E0,4.6E1,3.3E1,3.1E1,5E1,1E0,4.8E1,1.2027883E-1,-3.5171592E-1,4.3723008E-1,-8.447167E-2,3.3162918E-2,-2.2413166E-1,1.733069E-1,-3.0320102E-2],"split_indices":[7,11,11,11,11,5,11,0,0,0,0,0,0,0,0],"split_type":[0,0,0,0,0,0,0,0,0,0,0,0,0,0,0],"sum_hessian":[2.304E3,6.64E2,1.64E3,3.38E2,3.26E2,4.11E2,1.229E3,9.1E1,2.47E2,7E1,2.56E2,1.78E2,2.33E2,7.33E2,4.96E2],"tree_param":{"num_deleted":"0","num_feature":"12","num_nodes":"15","size_leaf_vector":"1"}},{"base_weights":[-4.648268E-3,-2.4285002E-1,1.588143E0,-1.7649981E-1,-1.1253336E1,1.311225E0,1.4938587E1,-5.3122558E-2,8.100795E-2,-6.894536E-1,-1.8247302E0,2.3749904E-1,-2.9840907E-1,2.052696E0,-6.501633E-1],"categories":[],"categories_nodes":[],"categories_segments":[],"categories_sizes":[],"default_left":[0,0,0,0,0,0,0,0,0,0,0,0,0,0,0],"id":44,"left_children":[1,3,5,7,9,11,13,-1,-1,-1,-1,-1,-1,-1,-1],"loss_changes":[8.749158E2,1.4634932E3,1.0895057E3,6.9861066E2,2.4001685E2,1.3550034E3,8.523539E2,0E0,0E0,0E0,0E0,0E0,0E0,0E0,0E0],"parents":[2147483647,0,0,1,1,2,2,3,3,4,4,5,5,6,6],"right_children":[2,4,6,8,10,12,14,-1,-1,-1,-1,-1,-1,-1,-1],"split_conditions":[1E0,7.3E1,6.7E1,1E0,1E0,5.5E1,1E0,-5.3122558E-2,8.100795E-2,-6.894536E-1,-1.8247302E0,2.3749904E-1,-2.9840907E-1,2.052696E0,-6.501633E-1],"split_indices":[1,11,11,2,2,11,5,0,0,0,0,0,0,0,0],"split_type":[0,0,0,0,0,0,0,0,0,0,0,0,0,0,0],"sum_hessian":[2.304E3,2.005E3,2.99E2,1.994E3,1.1E1,2.94E2,5E0,1.467E3,5.27E2,8E0,3E0,2.36E2,5.8E1,4E0,1E0],"tree_param":{"num_deleted":"0","num_feature":"12","num_nodes":"15","size_leaf_vector":"1"}},{"base_weights":[-4.679739E-3,-7.864616E-1,4.2184514E-1,-4.7000888E-1,-4.6851325E0,4.2031364E0,2.4943215E-1,-7.0233054E-2,2.8151268E-1,-1.4530782E-1,-1.0772232E0,6.1735797E-1,-2.776581E-1,-9.524865E-2,8.400942E-2],"categories":[],"categories_nodes":[],"categories_segments":[],"categories_sizes":[],"default_left":[0,0,0,0,0,0,0,0,0,0,0,0,0,0,0],"id":45,"left_children":[1,3,5,7,9,11,13,-1,-1,-1,-1,-1,-1,-1,-1],"loss_changes":[7.689327E2,1.0020664E3,9.716516E2,5.774361E2,1.184451E3,9.1109546E2,1.01457684E3,0E0,0E0,0E0,0E0,0E0,0E0,0E0,0E0],"parents":[2147483647,0,0,1,1,2,2,3,3,4,4,5,5,6,6],"right_children":[2,4,6,8,10,12,14,-1,-1,-1,-1,-1,-1,-1,-1],"split_conditions":[3.8E1,3.7E1,3.9E1,3.6E1,1E0,1E0,1E0,-7.0233054E-2,2.8151268E-1,-1.4530782E-1,-1.0772232E0,6.1735797E-1,-2.776581E-1,-9.524865E-2,8.400942E-2],"split_indices":[11,11,11,11,3,9,7,0,0,0,0,0,0,0,0],"split_type":[0,0,0,0,0,0,0,0,0,0,0,0,0,0,0],"sum_hessian":[2.304E3,8.13E2,1.491E3,7.53E2,6E1,6.4E1,1.427E3,7.04E2,4.9E1,4E1,2E1,5E1,1.4E1,4.7E2,9.57E2],"tree_param":{"num_deleted":"0","num_feature":"12","num_nodes":"15","size_leaf_vector":"1"}},{"base_weights":[-4.507085E-3,1.7030744E-1,-1.865641E0,2.4348901E-1,-6.474348E0,-2.1823692E0,5.9294486E0,7.4599594E-2,-6.234237E-2,-1.0718839E0,1.0949588E0,2.8160095E-1,-2.6243675E-1,1.2224509E0,-2.9248888E-2],"categories":[],"categories_nodes":[],"categories_segments":[],"categories_sizes":[],"default_left":[0,0,0,0,0,0,0,0,0,0,0,0,0,0,0],"id":46,"left_children":[1,3,5,7,9,11,13,-1,-1,-1,-1,-1,-1,-1,-1],"loss_changes":[7.502569E2,1.026626E3,5.0178735E2,9.091885E2,1.8183491E3,4.2936163E2,3.1691525E2,0E0,0E0,0E0,0E0,0E0,0E0,0E0,0E0],"parents":[2147483647,0,0,1,1,2,2,3,3,4,4,5,5,6,6],"right_children":[2,4,6,8,10,12,14,-1,-1,-1,-1,-1,-1,-1,-1],"split_conditions":[1E0,6.9E1,6.7E1,1E0,1E0,2.5E1,7.1E1,7.4599594E-2,-6.234237E-2,-1.0718839E0,1.0949588E0,2.8160095E-1,-2.6243675E-1,1.2224509E0,-2.9248888E-2],"split_indices":[0,11,11,3,1,11,11,0,0,0,0,0,0,0,0],"split_type":[0,0,0,0,0,0,0,0,0,0,0,0,0,0,0],"sum_hessian":[2.304E3,2.107E3,1.97E2,2.085E3,2.2E1,1.9E2,7E0,1.32E3,7.65E2,1.8E1,4E0,1.5E1,1.75E2,3E0,4E0],"tree_param":{"num_deleted":"0","num_feature":"12","num_nodes":"15","size_leaf_vector":"1"}},{"base_weights":[-3.5163325E-3,3.5476053E-1,-8.105187E-1,-2.8370552E0,5.161117E-1,-5.278178E0,-6.931366E-1,-9.458685E-1,-1.4690822E-1,6.704872E-2,-1.975307E-1,-1.0079548E0,6.431415E-2,-1.4990891E-2,-1.7354095E-1],"categories":[],"categories_nodes":[],"categories_segments":[],"categories_sizes":[],"default_left":[0,0,0,0,0,0,0,0,0,0,0,0,0,0,0],"id":47,"left_children":[1,3,5,7,9,11,13,-1,-1,-1,-1,-1,-1,-1,-1],"loss_changes":[6.667328E2,8.239242E2,3.6815747E2,6.835866E2,5.8632245E2,5.182305E2,3.9154437E2,0E0,0E0,0E0,0E0,0E0,0E0,0E0,0E0],"parents":[2147483647,0,0,1,1,2,2,3,3,4,4,5,5,6,6],"right_children":[2,4,6,8,10,12,14,-1,-1,-1,-1,-1,-1,-1,-1],"split_conditions":[1E0,2.6E1,2E1,1E0,1E0,1E0,4.6E1,-9.458685E-1,-1.4690822E-1,6.704872E-2,-1.975307E-1,-1.0079548E0,6.431415E-2,-1.4990891E-2,-1.7354095E-1],"split_indices":[9,11,11,7,0,3,11,0,0,0,0,0,0,0,0],"split_type":[0,0,0,0,0,0,0,0,0,0,0,0,0,0,0],"sum_hessian":[2.304E3,1.596E3,7.08E2,7.6E1,1.52E3,1.7E1,6.91E2,1.2E1,6.4E1,1.432E3,8.8E1,9E0,8E0,4.55E2,2.36E2],"tree_param":{"num_deleted":"0","num_feature":"12","num_nodes":"15","size_leaf_vector":"1"}},{"base_weights":[-4.185738E-3,-7.0645183E-1,3.7895688E-1,-4.1657755E-1,-4.277907E0,3.7341907E0,2.2596727E-1,-5.2308583E-1,-2.8500993E-2,-1.181611E0,-1.9901417E-1,5.4906434E-1,-2.486695E-1,-8.138758E-2,7.369695E-2],"categories":[],"categories_nodes":[],"categories_segments":[],"categories_sizes":[],"default_left":[0,0,0,0,0,0,0,0,0,0,0,0,0,0,0],"id":48,"left_children":[1,3,5,7,9,11,13,-1,-1,-1,-1,-1,-1,-1,-1],"loss_changes":[6.204696E2,8.4093024E2,7.6502356E2,4.7609534E2,1.0284678E3,7.238885E2,7.593849E2,0E0,0E0,0E0,0E0,0E0,0E0,0E0,0E0],"parents":[2147483647,0,0,1,1,2,2,3,3,4,4,5,5,6,6],"right_children":[2,4,6,8,10,12,14,-1,-1,-1,-1,-1,-1,-1,-1],"split_conditions":[3.8E1,3.7E1,3.9E1,2E1,1E0,1E0,1E0,-5.2308583E-1,-2.8500993E-2,-1.181611E0,-1.9901417E-1,5.4906434E-1,-2.486695E-1,-8.138758E-2,7.369695E-2],"split_indices":[11,11,11,11,7,9,7,0,0,0,0,0,0,0,0],"split_type":[0,0,0,0,0,0,0,0,0,0,0,0,0,0,0],"sum_hessian":[2.304E3,8.13E2,1.491E3,7.53E2,6E1,6.4E1,1.427E3,1.9E1,7.34E2,1.3E1,4.7E1,5E1,1.4E1,4.7E2,9.57E2],"tree_param":{"num_deleted":"0","num_feature":"12","num_nodes":"15","size_leaf_vector":"1"}},{"base_weights":[-4.4782897E-3,-1.8816139E-1,1.2237643E0,-1.3208488E-1,-9.495201E0,1.0502814E0,1.8048477E0,-9.085402E-2,1.5451667E-2,-1.2646112E0,-2.5547013E-1,1.9249645E-1,-2.310205E-1],"categories":[],"categories_nodes":[],"categories_segments":[],"categories_sizes":[],"default_left":[0,0,0,0,0,0,0,0,0,0,0,0,0],"id":49,"left_children":[1,3,5,7,9,11,-1,-1,-1,-1,-1,-1,-1],"loss_changes":[5.2025543E2,1.0456898E3,8.5668396E2,4.4409433E2,2.3011975E2,8.803765E2,0E0,0E0,0E0,0E0,0E0,0E0,0E0],"parents":[2147483647,0,0,1,1,2,2,3,3,4,4,5,5],"right_children":[2,4,6,8,10,12,-1,-1,-1,-1,-1,-1,-1],"split_conditions":[1E0,7.3E1,7.3E1,3.4E1,1E0,5.5E1,1.8048477E0,-9.085402E-2,1.5451667E-2,-1.2646112E0,-2.5547013E-1,1.9249645E-1,-2.310205E-1],"split_indices":[1,11,11,11,3,11,0,0,0,0,0,0,0],"split_type":[0,0,0,0,0,0,0,0,0,0,0,0,0],"sum_hessian":[2.304E3,2.005E3,2.99E2,1.994E3,1.1E1,2.97E2,2E0,5.37E2,1.457E3,7E0,4E0,2.36E2,6.1E1],"tree_param":{"num_deleted":"0","num_feature":"12","num_nodes":"13","size_leaf_vector":"1"}},{"base_weights":[-3.9556036E-3,1.343449E-1,-1.4763471E0,1.9764733E-1,-5.612751E0,-1.7795291E0,5.946667E0,1.6225059E-2,1.0687307E0,-9.304351E-1,9.537878E-1,3.2440338E-1,-2.2261058E-1,1.138296E0,4.083E-2],"categories":[],"categories_nodes":[],"categories_segments":[],"categories_sizes":[],"default_left":[0,0,0,0,0,0,0,0,0,0,0,0,0,0,0],"id":50,"left_children":[1,3,5,7,9,11,13,-1,-1,-1,-1,-1,-1,-1,-1],"loss_changes":[4.6957126E2,7.6801056E2,4.561861E2,7.7279767E2,1.3751353E3,4.3571198E2,2.362178E2,0E0,0E0,0E0,0E0,0E0,0E0,0E0,0E0],"parents":[2147483647,0,0,1,1,2,2,3,3,4,4,5,5,6,6],"right_children":[2,4,6,8,10,12,14,-1,-1,-1,-1,-1,-1,-1,-1],"split_conditions":[1E0,6.9E1,6.7E1,6.7E1,1E0,2.5E1,7.1E1,1.6225059E-2,1.0687307E0,-9.304351E-1,9.537878E-1,3.2440338E-1,-2.2261058E-1,1.138296E0,4.083E-2],"split_indices":[0,11,11,11,1,11,11,0,0,0,0,0,0,0,0],"split_type":[0,0,0,0,0,0,0,0,0,0,0,0,0,0,0],"sum_hessian":[2.304E3,2.107E3,1.97E2,2.085E3,2.2E1,1.9E2,7E0,2.079E3,6E0,1.8E1,4E0,1.5E1,1.75E2,3E0,4E0],"tree_param":{"num_deleted":"0","num_feature":"12","num_nodes":"15","size_leaf_vector":"1"}},{"base_weights":[-2.5250772E-3,-3.4563138E0,5.5343747E-2,-4.6376383E-1,-4.5085187E0,3.5912645E-1,-5.563294E-1,5.0056994E-1,-1.5112801E-1,-2.8420717E-1,-1.3796682E0,1.21674456E-1,-6.638419E-2,-2.1567486E-1,3.3761572E-2],"categories":[],"categories_nodes":[],"categories_segments":[],"categories_sizes":[],"default_left":[0,0,0,0,0,0,0,0,0,0,0,0,0,0,0],"id":51,"left_children":[1,3,5,7,9,11,13,-1,-1,-1,-1,-1,-1,-1,-1],"loss_changes":[4.60884E2,1.1756259E2,4.2162988E2,7.0587875E1,3.9417932E2,1.3308191E3,1.0780354E3,0E0,0E0,0E0,0E0,0E0,0E0,0E0,0E0],"parents":[2147483647,0,0,1,1,2,2,3,3,4,4,5,5,6,6],"right_children":[2,4,6,8,10,12,14,-1,-1,-1,-1,-1,-1,-1,-1],"split_conditions":[2.1E1,1E0,1E0,1E0,1E0,1E0,1E0,5.0056994E-1,-1.5112801E-1,-2.8420717E-1,-1.3796682E0,1.21674456E-1,-6.638419E-2,-2.1567486E-1,3.3761572E-2],"split_indices":[11,5,3,7,4,5,5,0,0,0,0,0,0,0,0],"split_type":[0,0,0,0,0,0,0,0,0,0,0,0,0,0,0],"sum_hessian":[2.304E3,3.7E1,2.267E3,1E1,2.7E1,1.515E3,7.52E2,1E0,9E0,2.4E1,3E0,8.24E2,6.91E2,2.69E2,4.83E2],"tree_param":{"num_deleted":"0","num_feature":"12","num_nodes":"15","size_leaf_vector":"1"}},{"base_weights":[-2.8971317E-3,-5.9880084E-1,3.2221583E-1,-3.31033E-1,-3.8987708E0,1.499535E0,-4.5332965E-2,-5.2949052E-2,2.4738388E-1,-1.0719327E-1,-9.232181E-1,1.7981328E-2,6.684277E-1,-4.6698745E-2,1.7986248E-1],"categories":[],"categories_nodes":[],"categories_segments":[],"categories_sizes":[],"default_left":[0,0,0,0,0,0,0,0,0,0,0,0,0,0,0],"id":52,"left_children":[1,3,5,7,9,11,13,-1,-1,-1,-1,-1,-1,-1,-1],"loss_changes":[4.4675446E2,7.1798096E2,6.456895E2,4.2102246E2,9.0978156E2,2.4278562E3,8.8564984E2,0E0,0E0,0E0,0E0,0E0,0E0,0E0,0E0],"parents":[2147483647,0,0,1,1,2,2,3,3,4,4,5,5,6,6],"right_children":[2,4,6,8,10,12,14,-1,-1,-1,-1,-1,-1,-1,-1],"split_conditions":[3.8E1,3.7E1,4.3E1,3.6E1,1E0,1E0,1E0,-5.2949052E-2,2.4738388E-1,-1.0719327E-1,-9.232181E-1,1.7981328E-2,6.684277E-1,-4.6698745E-2,1.7986248E-1],"split_indices":[11,11,11,11,3,2,4,0,0,0,0,0,0,0,0],"split_type":[0,0,0,0,0,0,0,0,0,0,0,0,0,0,0],"sum_hessian":[2.304E3,8.13E2,1.491E3,7.53E2,6E1,3.54E2,1.137E3,7.04E2,4.9E1,4E1,2E1,2.83E2,7.1E1,9.26E2,2.11E2],"tree_param":{"num_deleted":"0","num_feature":"12","num_nodes":"15","size_leaf_vector":"1"}},{"base_weights":[-2.6150164E-3,2.8348368E-1,-6.4703953E-1,-2.349739E0,4.1660312E-1,-1.9423236E-1,-1.5480132E0,-8.3227473E-1,-1.1189878E-1,5.0403804E-2,-3.310035E-1,-1.0057614E-1,4.738403E-1,-5.233618E-1,-2.9697796E-2],"categories":[],"categories_nodes":[],"categories_segments":[],"categories_sizes":[],"default_left":[0,0,0,0,0,0,0,0,0,0,0,0,0,0,0],"id":53,"left_children":[1,3,5,7,9,11,13,-1,-1,-1,-1,-1,-1,-1,-1],"loss_changes":[4.2515405E2,5.6078033E2,2.8894812E2,5.567361E2,4.972684E2,1.8981738E3,1.0912103E3,0E0,0E0,0E0,0E0,0E0,0E0,0E0,0E0],"parents":[2147483647,0,0,1,1,2,2,3,3,4,4,5,5,6,6],"right_children":[2,4,6,8,10,12,14,-1,-1,-1,-1,-1,-1,-1,-1],"split_conditions":[1E0,2.6E1,4.6E1,1E0,6.5E1,4.2E1,4.9E1,-8.3227473E-1,-1.1189878E-1,5.0403804E-2,-3.310035E-1,-1.0057614E-1,4.738403E-1,-5.233618E-1,-2.9697796E-2],"split_indices":[9,11,11,7,11,11,11,0,0,0,0,0,0,0,0],"split_type":[0,0,0,0,0,0,0,0,0,0,0,0,0,0,0],"sum_hessian":[2.304E3,1.596E3,7.08E2,7.6E1,1.52E3,4.72E2,2.36E2,1.2E1,6.4E1,1.486E3,3.4E1,4.06E2,6.6E1,5.9E1,1.77E2],"tree_param":{"num_deleted":"0","num_feature":"12","num_nodes":"15","size_leaf_vector":"1"}},{"base_weights":[-2.9637276E-3,-4.2881603E0,3.4528352E-2,-8.232918E0,-3.1218407E-1,1.5709667E-1,-1.1468488E0,1.6224442E-1,-1.0899564E0,-5.357829E-1,1.4043847E-1,-1.1276352E-2,1.0332674E-1,2.947743E-2,-6.756219E-1],"categories":[],"categories_nodes":[],"categories_segments":[],"categories_sizes":[],"default_left":[0,0,0,0,0,0,0,0,0,0,0,0,0,0,0],"id":54,"left_children":[1,3,5,7,9,11,13,-1,-1,-1,-1,-1,-1,-1,-1],"loss_changes":[3.704715E2,3.1111505E2,3.3119162E2,2.8049158E2,1.0279761E2,4.9002762E2,1.7406102E3,0E0,0E0,0E0,0E0,0E0,0E0,0E0,0E0],"parents":[2147483647,0,0,1,1,2,2,3,3,4,4,5,5,6,6],"right_children":[2,4,6,8,10,12,14,-1,-1,-1,-1,-1,-1,-1,-1],"split_conditions":[2E1,1E0,5.8E1,1E0,1E0,1E0,1E0,1.6224442E-1,-1.0899564E0,-5.357829E-1,1.4043847E-1,-1.1276352E-2,1.0332674E-1,2.947743E-2,-6.756219E-1],"split_indices":[11,3,11,5,9,2,2,0,0,0,0,0,0,0,0],"split_type":[0,0,0,0,0,0,0,0,0,0,0,0,0,0,0],"sum_hessian":[2.304E3,1.9E1,2.285E3,9E0,1E1,2.071E3,2.14E2,2E0,7E0,2E0,8E0,1.584E3,4.87E2,1.71E2,4.3E1],"tree_param":{"num_deleted":"0","num_feature":"12","num_nodes":"15","size_leaf_vector":"1"}},{"base_weights":[-3.4819357E-3,-1.5628128E-1,1.018248E0,-1.11359775E-1,-7.6114583E0,7.953916E-1,1.1805642E1,-1.9594854E-2,1.6812794E-1,-1.0595379E0,-1.3148941E-1,1.6549383E-1,-2.6708445E-1,1.6908242E0,-6.853676E-1],"categories":[],"categories_nodes":[],"categories_segments":[],"categories_sizes":[],"default_left":[0,0,0,0,0,0,0,0,0,0,0,0,0,0,0],"id":55,"left_children":[1,3,5,7,9,11,13,-1,-1,-1,-1,-1,-1,-1,-1],"loss_changes":[3.6001495E2,6.709573E2,7.1182166E2,3.0284546E2,2.115296E2,8.8334045E2,6.871497E2,0E0,0E0,0E0,0E0,0E0,0E0,0E0,0E0],"parents":[2147483647,0,0,1,1,2,2,3,3,4,4,5,5,6,6],"right_children":[2,4,6,8,10,12,14,-1,-1,-1,-1,-1,-1,-1,-1],"split_conditions":[1E0,7.3E1,6.7E1,6.1E1,1E0,5.5E1,1E0,-1.9594854E-2,1.6812794E-1,-1.0595379E0,-1.3148941E-1,1.6549383E-1,-2.6708445E-1,1.6908242E0,-6.853676E-1],"split_indices":[1,11,11,11,3,11,5,0,0,0,0,0,0,0,0],"split_type":[0,0,0,0,0,0,0,0,0,0,0,0,0,0,0],"sum_hessian":[2.304E3,2.005E3,2.99E2,1.994E3,1.1E1,2.94E2,5E0,1.905E3,8.9E1,7E0,4E0,2.36E2,5.8E1,4E0,1E0],"tree_param":{"num_deleted":"0","num_feature":"12","num_nodes":"15","size_leaf_vector":"1"}},{"base_weights":[-3.1963016E-3,-5.072774E-1,2.718206E-1,-2.611793E-1,-3.5408955E0,3.0861495E0,1.4352706E-1,-6.147883E-2,1.02469616E-1,-1.0303526E0,-1.494693E-1,8.4384054E-1,1.16626166E-1,-7.115238E-2,5.6376237E-2],"categories":[],"categories_nodes":[],"categories_segments":[],"categories_sizes":[],"default_left":[0,0,0,0,0,0,0,0,0,0,0,0,0,0,0],"id":56,"left_children":[1,3,5,7,9,11,13,-1,-1,-1,-1,-1,-1,-1,-1],"loss_changes":[3.1968195E2,6.0678125E2,5.382589E2,3.434716E2,8.286999E2,6.5808105E2,5.1351373E2,0E0,0E0,0E0,0E0,0E0,0E0,0E0,0E0],"parents":[2147483647,0,0,1,1,2,2,3,3,4,4,5,5,6,6],"right_children":[2,4,6,8,10,12,14,-1,-1,-1,-1,-1,-1,-1,-1],"split_conditions":[3.8E1,3.7E1,3.9E1,3.4E1,1E0,1E0,1E0,-6.147883E-2,1.02469616E-1,-1.0303526E0,-1.494693E-1,8.4384054E-1,1.16626166E-1,-7.115238E-2,5.6376237E-2],"split_indices":[11,11,11,11,7,7,7,0,0,0,0,0,0,0,0],"split_type":[0,0,0,0,0,0,0,0,0,0,0,0,0,0,0],"sum_hessian":[2.304E3,8.13E2,1.491E3,7.53E2,6E1,6.4E1,1.427E3,5.91E2,1.62E2,1.3E1,4.7E1,1.6E1,4.8E1,4.7E2,9.57E2],"tree_param":{"num_deleted":"0","num_feature":"12","num_nodes":"15","size_leaf_vector":"1"}},{"base_weights":[-2.9604856E-3,2.4177764E-1,-5.5422115E-1,-7.083688E-1,5.3698987E-1,-1.4210911E-1,-1.374368E0,3.245148E-2,-1.7484343E-1,3.0778918E-1,3.935305E-2,-8.652467E-2,4.252803E-1,-2.1968094E-1,3.2786185E-1],"categories":[],"categories_nodes":[],"categories_segments":[],"categories_sizes":[],"default_left":[0,0,0,0,0,0,0,0,0,0,0,0,0,0,0],"id":57,"left_children":[1,3,5,7,9,11,13,-1,-1,-1,-1,-1,-1,-1,-1],"loss_changes":[3.1111194E2,4.4833063E2,2.3944127E2,4.0771448E2,4.43134E2,1.5069333E3,9.14156E2,0E0,0E0,0E0,0E0,0E0,0E0,0E0,0E0],"parents":[2147483647,0,0,1,1,2,2,3,3,4,4,5,5,6,6],"right_children":[2,4,6,8,10,12,14,-1,-1,-1,-1,-1,-1,-1,-1],"split_conditions":[1E0,3.5E1,4.6E1,1E0,3.7E1,4.2E1,1E0,3.245148E-2,-1.7484343E-1,3.0778918E-1,3.935305E-2,-8.652467E-2,4.252803E-1,-2.1968094E-1,3.2786185E-1],"split_indices":[9,11,11,5,11,11,4,0,0,0,0,0,0,0,0],"split_type":[0,0,0,0,0,0,0,0,0,0,0,0,0,0,0],"sum_hessian":[2.304E3,1.596E3,7.08E2,3.78E2,1.218E3,4.72E2,2.36E2,1.9E2,1.88E2,6.4E1,1.154E3,4.06E2,6.6E1,2.01E2,3.5E1],"tree_param":{"num_deleted":"0","num_feature":"12","num_nodes":"15","size_leaf_vector":"1"}},{"base_weights":[-2.3811846E-3,1.0585993E-1,-1.1547543E0,1.7863005E-1,-3.4779902E0,3.7214613E0,-1.57478E0,7.824371E-3,3.1285426E-1,-7.434817E-2,-1.1116743E0,-3.7254733E-1,3.7233334E0,-1.9042711E-1,5.870872E-1],"categories":[],"categories_nodes":[],"categories_segments":[],"categories_sizes":[],"default_left":[0,0,0,0,0,0,0,0,0,0,0,0,0,0,0],"id":58,"left_children":[1,3,5,7,9,11,13,-1,-1,-1,-1,-1,-1,-1,-1],"loss_changes":[2.8763443E2,5.503818E2,4.1139133E2,6.1185785E2,8.690408E2,4.131683E3,4.6012927E2,0E0,0E0,0E0,0E0,0E0,0E0,0E0,0E0],"parents":[2147483647,0,0,1,1,2,2,3,3,4,4,5,5,6,6],"right_children":[2,4,6,8,10,12,14,-1,-1,-1,-1,-1,-1,-1,-1],"split_conditions":[1E0,6.5E1,2.5E1,6.1E1,1E0,2.4E1,6.7E1,7.824371E-3,3.1285426E-1,-7.434817E-2,-1.1116743E0,-3.7254733E-1,3.7233334E0,-1.9042711E-1,5.870872E-1],"split_indices":[0,11,11,11,2,11,11,0,0,0,0,0,0,0,0],"split_type":[0,0,0,0,0,0,0,0,0,0,0,0,0,0,0],"sum_hessian":[2.304E3,2.107E3,1.97E2,2.066E3,4.1E1,1.5E1,1.82E2,1.999E3,6.7E1,3.1E1,1E1,1.3E1,2E0,1.75E2,7E0],"tree_param":{"num_deleted":"0","num_feature":"12","num_nodes":"15","size_leaf_vector":"1"}},{"base_weights":[-8.9534087E-4,1.0998978E-1,-1.0793134E0,-5.952389E-2,1.3874663E0,-2.2625847E0,4.6743317E0,1.2816968E-2,-1.65945E-1,2.4010848E-1,-2.6136672E-1,-1.1066588E0,-1.9684007E-2,1.3685744E0,1.2890302E-1],"categories":[],"categories_nodes":[],"categories_segments":[],"categories_sizes":[],"default_left":[0,0,0,0,0,0,0,0,0,0,0,0,0,0,0],"id":59,"left_children":[1,3,5,7,9,11,13,-1,-1,-1,-1,-1,-1,-1,-1],"loss_changes":[2.7575177E2,4.5288812E2,1.4743225E3,5.5485913E2,9.999033E2,3.2532625E3,1.1110933E3,0E0,0E0,0E0,0E0,0E0,0E0,0E0,0E0],"parents":[2147483647,0,0,1,1,2,2,3,3,4,4,5,5,6,6],"right_children":[2,4,6,8,10,12,14,-1,-1,-1,-1,-1,-1,-1,-1],"split_conditions":[5.8E1,5.3E1,1E0,5E1,1E0,5.9E1,5.9E1,1.2816968E-2,-1.65945E-1,2.4010848E-1,-2.6136672E-1,-1.1066588E0,-1.9684007E-2,1.3685744E0,1.2890302E-1],"split_indices":[11,11,4,11,4,11,11,0,0,0,0,0,0,0,0],"split_type":[0,0,0,0,0,0,0,0,0,0,0,0,0,0,0],"sum_hessian":[2.304E3,2.09E3,2.14E2,1.846E3,2.44E2,1.78E2,3.6E1,1.653E3,1.93E2,1.95E2,4.9E1,3.3E1,1.45E2,9E0,2.7E1],"tree_param":{"num_deleted":"0","num_feature":"12","num_nodes":"15","size_leaf_vector":"1"}},{"base_weights":[-7.204457E-4,-3.6629448E0,3.132033E-2,7.534828E-1,-6.67002E0,2.703838E-1,-4.4434756E-1,-4.843796E-1,3.0446762E-1,1.678441E-1,-9.639334E-1,9.9073134E-2,-5.904786E-2,-1.9399512E-1,3.8004216E-2],"categories":[],"categories_nodes":[],"categories_segments":[],"categories_sizes":[],"default_left":[0,0,0,0,0,0,0,0,0,0,0,0,0,0,0],"id":60,"left_children":[1,3,5,7,9,11,13,-1,-1,-1,-1,-1,-1,-1,-1],"loss_changes":[2.7058463E2,2.7063635E2,2.6007224E2,1.301678E2,3.1364948E2,9.444078E2,9.4395184E2,0E0,0E0,0E0,0E0,0E0,0E0,0E0,0E0],"parents":[2147483647,0,0,1,1,2,2,3,3,4,4,5,5,6,6],"right_children":[2,4,6,8,10,12,14,-1,-1,-1,-1,-1,-1,-1,-1],"split_conditions":[2E1,1.9E1,1E0,1E0,1E0,1E0,1E0,-4.843796E-1,3.0446762E-1,1.678441E-1,-9.639334E-1,9.9073134E-2,-5.904786E-2,-1.9399512E-1,3.8004216E-2],"split_indices":[11,11,3,9,5,5,5,0,0,0,0,0,0,0,0],"split_type":[0,0,0,0,0,0,0,0,0,0,0,0,0,0,0],"sum_hessian":[2.304E3,1.9E1,2.285E3,8E0,1.1E1,1.521E3,7.64E2,2E0,6E0,3E0,8E0,8.28E2,6.93E2,2.71E2,4.93E2],"tree_param":{"num_deleted":"0","num_feature":"12","num_nodes":"15","size_leaf_vector":"1"}},{"base_weights":[-1.1216509E-3,2.1216324E-1,-4.8153752E-1,-6.5941286E-1,4.8297143E-1,4.6302345E-1,-8.307155E-1,2.2946399E-2,-1.554207E-1,5.7908017E-2,-2.7847943E-1,1.3126582E-1,-4.5602894E-1,-3.4880084E-1,-4.749828E-2],"categories":[],"categories_nodes":[],"categories_segments":[],"categories_sizes":[],"default_left":[0,0,0,0,0,0,0,0,0,0,0,0,0,0,0],"id":61,"left_children":[1,3,5,7,9,11,13,-1,-1,-1,-1,-1,-1,-1,-1],"loss_changes":[2.3628503E2,3.7725833E2,2.3422691E2,3.017987E2,3.8445273E2,8.254384E2,4.880013E2,0E0,0E0,0E0,0E0,0E0,0E0,0E0,0E0],"parents":[2147483647,0,0,1,1,2,2,3,3,4,4,5,5,6,6],"right_children":[2,4,6,8,10,12,14,-1,-1,-1,-1,-1,-1,-1,-1],"split_conditions":[1E0,3.5E1,3.1E1,1E0,6.5E1,1E0,3.4E1,2.2946399E-2,-1.554207E-1,5.7908017E-2,-2.7847943E-1,1.3126582E-1,-4.5602894E-1,-3.4880084E-1,-4.749828E-2],"split_indices":[9,11,11,5,11,2,11,0,0,0,0,0,0,0,0],"split_type":[0,0,0,0,0,0,0,0,0,0,0,0,0,0,0],"sum_hessian":[2.304E3,1.596E3,7.08E2,3.78E2,1.218E3,1.91E2,5.17E2,1.9E2,1.88E2,1.184E3,3.4E1,1.64E2,2.7E1,6E1,4.57E2],"tree_param":{"num_deleted":"0","num_feature":"12","num_nodes":"15","size_leaf_vector":"1"}},{"base_weights":[-1.4748059E-3,-3.4414856E0,2.8622173E-2,-7.01305E0,1.1825354E-1,1.2908709E-1,-9.3971235E-1,1.4940962E-1,-9.326599E-1,-4.4172618E-1,1.6169527E-1,-1.0496188E-2,8.890021E-2,2.9142285E-2,-5.7309747E-1],"categories":[],"categories_nodes":[],"categories_segments":[],"categories_sizes":[],"default_left":[0,0,0,0,0,0,0,0,0,0,0,0,0,0,0],"id":62,"left_children":[1,3,5,7,9,11,13,-1,-1,-1,-1,-1,-1,-1,-1],"loss_changes":[2.387442E2,2.5510611E2,2.225117E2,2.1075174E2,8.1913605E1,3.6861368E2,1.2698889E3,0E0,0E0,0E0,0E0,0E0,0E0,0E0,0E0],"parents":[2147483647,0,0,1,1,2,2,3,3,4,4,5,5,6,6],"right_children":[2,4,6,8,10,12,14,-1,-1,-1,-1,-1,-1,-1,-1],"split_conditions":[2E1,1E0,5.8E1,1E0,1E0,1E0,1E0,1.4940962E-1,-9.326599E-1,-4.4172618E-1,1.6169527E-1,-1.0496188E-2,8.890021E-2,2.9142285E-2,-5.7309747E-1],"split_indices":[11,3,11,5,9,2,2,0,0,0,0,0,0,0,0],"split_type":[0,0,0,0,0,0,0,0,0,0,0,0,0,0,0],"sum_hessian":[2.304E3,1.9E1,2.285E3,9E0,1E1,2.071E3,2.14E2,2E0,7E0,2E0,8E0,1.584E3,4.87E2,1.71E2,4.3E1],"tree_param":{"num_deleted":"0","num_feature":"12","num_nodes":"15","size_leaf_vector":"1"}},{"base_weights":[-1.988979E-3,-1.2071489E-1,7.9189825E-1,-6.533168E-2,-4.5066667E0,5.811725E-1,1.1020595E1,-9.941076E-3,9.5640385E-1,-1.504582E-1,-1.3762505E0,1.3701643E-1,-2.5980172E-1,1.5736655E0,-6.279854E-1],"categories":[],"categories_nodes":[],"categories_segments":[],"categories_sizes":[],"default_left":[0,0,0,0,0,0,0,0,0,0,0,0,0,0,0],"id":63,"left_children":[1,3,5,7,9,11,13,-1,-1,-1,-1,-1,-1,-1,-1],"loss_changes":[2.1735332E2,4.8697916E2,6.402298E2,6.5136395E2,6.739635E2,7.435243E2,5.883637E2,0E0,0E0,0E0,0E0,0E0,0E0,0E0,0E0],"parents":[2147483647,0,0,1,1,2,2,3,3,4,4,5,5,6,6],"right_children":[2,4,6,8,10,12,14,-1,-1,-1,-1,-1,-1,-1,-1],"split_conditions":[1E0,6.9E1,6.7E1,6.7E1,1E0,5.5E1,1E0,-9.941076E-3,9.5640385E-1,-1.504582E-1,-1.3762505E0,1.3701643E-1,-2.5980172E-1,1.5736655E0,-6.279854E-1],"split_indices":[1,11,11,11,2,11,5,0,0,0,0,0,0,0,0],"split_type":[0,0,0,0,0,0,0,0,0,0,0,0,0,0,0],"sum_hessian":[2.304E3,2.005E3,2.99E2,1.981E3,2.4E1,2.94E2,5E0,1.975E3,6E0,1.9E1,5E0,2.36E2,5.8E1,4E0,1E0],"tree_param":{"num_deleted":"0","num_feature":"12","num_nodes":"15","size_leaf_vector":"1"}},{"base_weights":[-1.6857296E-3,-2.3064609E0,3.6931176E-2,9.70523E-1,-3.212674E0,-4.354058E-1,2.2900565E-1,-4.1161498E-1,3.0118796E-1,-5.962987E-1,-1.3065462E-1,-1.623638E-1,7.6505914E-2,4.3334857E-2,-1.2168437E-1],"categories":[],"categories_nodes":[],"categories_segments":[],"categories_sizes":[],"default_left":[0,0,0,0,0,0,0,0,0,0,0,0,0,0,0],"id":64,"left_children":[1,3,5,7,9,11,13,-1,-1,-1,-1,-1,-1,-1,-1],"loss_changes":[2.0523775E2,1.1596451E2,2.0586145E2,1.0585076E2,1.4948251E2,9.3698096E2,4.770866E2,0E0,0E0,0E0,0E0,0E0,0E0,0E0,0E0],"parents":[2147483647,0,0,1,1,2,2,3,3,4,4,5,5,6,6],"right_children":[2,4,6,8,10,12,14,-1,-1,-1,-1,-1,-1,-1,-1],"split_conditions":[2.1E1,1.9E1,1E0,1E0,2E1,4.6E1,5.5E1,-4.1161498E-1,3.0118796E-1,-5.962987E-1,-1.3065462E-1,-1.623638E-1,7.6505914E-2,4.3334857E-2,-1.2168437E-1],"split_indices":[11,11,7,9,11,11,11,0,0,0,0,0,0,0,0],"split_type":[0,0,0,0,0,0,0,0,0,0,0,0,0,0,0],"sum_hessian":[2.304E3,3.7E1,2.267E3,8E0,2.9E1,6.55E2,1.612E3,2E0,6E0,1.1E1,1.8E1,3.29E2,3.26E2,1.413E3,1.99E2],"tree_param":{"num_deleted":"0","num_feature":"12","num_nodes":"15","size_leaf_vector":"1"}},{"base_weights":[-1.9525565E-3,-3.7959096E-1,2.0407934E-1,-1.4670385E-1,-3.252005E0,2.6961179E0,9.0503305E-2,-2.9231861E-2,1.9093984E-1,-7.777541E-2,-7.9278284E-1,7.7398854E-1,8.912168E-2,4.6592306E-2,-6.449783E-2],"categories":[],"categories_nodes":[],"categories_segments":[],"categories_sizes":[],"default_left":[0,0,0,0,0,0,0,0,0,0,0,0,0,0,0],"id":65,"left_children":[1,3,5,7,9,11,13,-1,-1,-1,-1,-1,-1,-1,-1],"loss_changes":[1.7941928E2,5.4404675E2,4.2204556E2,2.2630489E2,6.995528E2,5.848297E2,3.945918E2,0E0,0E0,0E0,0E0,0E0,0E0,0E0,0E0],"parents":[2147483647,0,0,1,1,2,2,3,3,4,4,5,5,6,6],"right_children":[2,4,6,8,10,12,14,-1,-1,-1,-1,-1,-1,-1,-1],"split_conditions":[3.8E1,3.7E1,3.9E1,3.6E1,1E0,1E0,1E0,-2.9231861E-2,1.9093984E-1,-7.777541E-2,-7.9278284E-1,7.7398854E-1,8.912168E-2,4.6592306E-2,-6.449783E-2],"split_indices":[11,11,11,11,3,7,3,0,0,0,0,0,0,0,0],"split_type":[0,0,0,0,0,0,0,0,0,0,0,0,0,0,0],"sum_hessian":[2.304E3,8.13E2,1.491E3,7.53E2,6E1,6.4E1,1.427E3,7.04E2,4.9E1,4E1,2E1,1.6E1,4.8E1,9.45E2,4.82E2],"tree_param":{"num_deleted":"0","num_feature":"12","num_nodes":"15","size_leaf_vector":"1"}},{"base_weights":[-1.6981931E-3,8.567215E-2,-9.318749E-1,1.5273085E-1,-2.6220238E0,3.9101167E0,-1.3501261E0,4.856051E-3,3.6813405E-1,-6.688616E-2,-7.736177E-1,-2.9667196E-1,3.4698646E0,-1.6508405E-1,5.4343534E-1],"categories":[],"categories_nodes":[],"categories_segments":[],"categories_sizes":[],"default_left":[0,0,0,0,0,0,0,0,0,0,0,0,0,0,0],"id":66,"left_children":[1,3,5,7,9,11,13,-1,-1,-1,-1,-1,-1,-1,-1],"loss_changes":[1.8740686E2,3.8315967E2,4.0626263E2,7.562936E2,5.042528E2,3.490584E3,3.8232596E2,0E0,0E0,0E0,0E0,0E0,0E0,0E0,0E0],"parents":[2147483647,0,0,1,1,2,2,3,3,4,4,5,5,6,6],"right_children":[2,4,6,8,10,12,14,-1,-1,-1,-1,-1,-1,-1,-1],"split_conditions":[1E0,6.4E1,2.5E1,6.1E1,1E0,2.4E1,6.7E1,4.856051E-3,3.6813405E-1,-6.688616E-2,-7.736177E-1,-2.9667196E-1,3.4698646E0,-1.6508405E-1,5.4343534E-1],"split_indices":[0,11,11,11,2,11,11,0,0,0,0,0,0,0,0],"split_type":[0,0,0,0,0,0,0,0,0,0,0,0,0,0,0],"sum_hessian":[2.304E3,2.107E3,1.97E2,2.057E3,5E1,1.5E1,1.82E2,1.999E3,5.8E1,3.7E1,1.3E1,1.3E1,2E0,1.75E2,7E0],"tree_param":{"num_deleted":"0","num_feature":"12","num_nodes":"15","size_leaf_vector":"1"}},{"base_weights":[-1.870716E-4,8.575E-2,-8.3597416E-1,-6.5150924E-2,1.2230082E0,-1.8408406E0,4.048001E0,1.1424579E-2,-1.5943108E-1,2.151651E-1,-2.4417315E-1,-9.770128E-1,1.8314467E-3,1.237954E0,9.2787966E-2],"categories":[],"categories_nodes":[],"categories_segments":[],"categories_sizes":[],"default_left":[0,0,0,0,0,0,0,0,0,0,0,0,0,0,0],"id":67,"left_children":[1,3,5,7,9,11,13,-1,-1,-1,-1,-1,-1,-1,-1],"loss_changes":[1.6562852E2,3.589231E2,1.0626163E3,5.0686273E2,8.39046E2,2.638957E3,9.503435E2,0E0,0E0,0E0,0E0,0E0,0E0,0E0,0E0],"parents":[2147483647,0,0,1,1,2,2,3,3,4,4,5,5,6,6],"right_children":[2,4,6,8,10,12,14,-1,-1,-1,-1,-1,-1,-1,-1],"split_conditions":[5.8E1,5.3E1,1E0,5E1,1E0,5.9E1,5.9E1,1.1424579E-2,-1.5943108E-1,2.151651E-1,-2.4417315E-1,-9.770128E-1,1.8314467E-3,1.237954E0,9.2787966E-2],"split_indices":[11,11,4,11,4,11,11,0,0,0,0,0,0,0,0],"split_type":[0,0,0,0,0,0,0,0,0,0,0,0,0,0,0],"sum_hessian":[2.304E3,2.09E3,2.14E2,1.846E3,2.44E2,1.78E2,3.6E1,1.653E3,1.93E2,1.95E2,4.9E1,3.3E1,1.45E2,9E0,2.7E1],"tree_param":{"num_deleted":"0","num_feature":"12","num_nodes":"15","size_leaf_vector":"1"}},{"base_weights":[-8.92846E-5,-7.5881445E-1,9.590969E-2,-3.675419E-1,-2.9565687E0,2.9731387E-1,-4.17715E-1,-1.5318199E-1,5.725479E-2,-2.6551122E-2,-9.7823954E-1,1.8423483E-2,2.0940626E-1,2.2005637E-1,-7.2018415E-2],"categories":[],"categories_nodes":[],"categories_segments":[],"categories_sizes":[],"default_left":[0,0,0,0,0,0,0,0,0,0,0,0,0,0,0],"id":68,"left_children":[1,3,5,7,9,11,13,-1,-1,-1,-1,-1,-1,-1,-1],"loss_changes":[1.679617E2,2.2163286E2,2.1187848E2,2.4276721E2,7.1378174E2,2.98484E2,4.585391E2,0E0,0E0,0E0,0E0,0E0,0E0,0E0,0E0],"parents":[2147483647,0,0,1,1,2,2,3,3,4,4,5,5,6,6],"right_children":[2,4,6,8,10,12,14,-1,-1,-1,-1,-1,-1,-1,-1],"split_conditions":[2.8E1,2.7E1,1E0,1E0,1E0,6.1E1,3.1E1,-1.5318199E-1,5.725479E-2,-2.6551122E-2,-9.7823954E-1,1.8423483E-2,2.0940626E-1,2.2005637E-1,-7.2018415E-2],"split_indices":[11,11,9,9,9,11,11,0,0,0,0,0,0,0,0],"split_type":[0,0,0,0,0,0,0,0,0,0,0,0,0,0,0],"sum_hessian":[2.304E3,2.58E2,2.046E3,2.2E2,3.8E1,1.47E3,5.76E2,9.8E1,1.22E2,2.8E1,1E1,1.384E3,8.6E1,5.9E1,5.17E2],"tree_param":{"num_deleted":"0","num_feature":"12","num_nodes":"15","size_leaf_vector":"1"}},{"base_weights":[-3.9387122E-4,4.4736773E-2,-1.6897777E0,-4.3498706E-2,3.2060158E0,-3.8262386E-2,-7.113452E0,8.420422E-3,-2.8245747E-1,5.2606046E-1,-2.9013023E-1,-4.9598932E-1,2.9159915E-1,-2.7745545E-1,-1.7267058E0],"categories":[],"categories_nodes":[],"categories_segments":[],"categories_sizes":[],"default_left":[0,0,0,0,0,0,0,0,0,0,0,0,0,0,0],"id":69,"left_children":[1,3,5,7,9,11,13,-1,-1,-1,-1,-1,-1,-1,-1],"loss_changes":[1.7581566E2,6.266319E2,5.371647E2,7.7659906E2,7.806922E2,6.978311E2,5.68868E2,0E0,0E0,0E0,0E0,0E0,0E0,0E0,0E0],"parents":[2147483647,0,0,1,1,2,2,3,3,4,4,5,5,6,6],"right_children":[2,4,6,8,10,12,14,-1,-1,-1,-1,-1,-1,-1,-1],"split_conditions":[6.4E1,6.1E1,1E0,5.8E1,1E0,6.7E1,1E0,8.420422E-3,-2.8245747E-1,5.2606046E-1,-2.9013023E-1,-4.9598932E-1,2.9159915E-1,-2.7745545E-1,-1.7267058E0],"split_indices":[11,11,2,11,9,11,7,0,0,0,0,0,0,0,0],"split_type":[0,0,0,0,0,0,0,0,0,0,0,0,0,0,0],"sum_hessian":[2.304E3,2.245E3,5.9E1,2.185E3,6E1,4.6E1,1.3E1,2.09E3,9.5E1,4.5E1,1.5E1,1.7E1,2.9E1,1E1,3E0],"tree_param":{"num_deleted":"0","num_feature":"12","num_nodes":"15","size_leaf_vector":"1"}},{"base_weights":[-1.3314179E-3,3.2115314E-2,-2.378098E0,-6.124289E-3,1.7386471E0,-3.9921305E0,7.136102E0,3.6346912E-3,-5.991527E-1,-5.9004754E-1,2.575829E-1,1.1972464E0,-6.1046714E-1],"categories":[],"categories_nodes":[],"categories_segments":[],"categories_sizes":[],"default_left":[0,0,0,0,0,0,0,0,0,0,0,0,0],"id":70,"left_children":[1,3,5,7,-1,9,11,-1,-1,-1,-1,-1,-1],"loss_changes":[1.8331252E2,1.5091868E3,5.198876E2,5.772682E2,0E0,3.6614868E2,3.9327377E2,0E0,0E0,0E0,0E0,0E0,0E0],"parents":[2147483647,0,0,1,1,2,2,3,3,5,5,6,6],"right_children":[2,4,6,8,-1,10,12,-1,-1,-1,-1,-1,-1],"split_conditions":[6.8E1,6.7E1,1E0,6.5E1,1.7386471E0,1E0,1E0,3.6346912E-3,-5.991527E-1,-5.9004754E-1,2.575829E-1,1.1972464E0,-6.1046714E-1],"split_indices":[11,11,1,11,0,0,5,0,0,0,0,0,0],"split_type":[0,0,0,0,0,0,0,0,0,0,0,0,0],"sum_hessian":[2.304E3,2.273E3,3.1E1,2.269E3,4E0,2.7E1,4E0,2.254E3,1.5E1,2.1E1,6E0,3E0,1E0],"tree_param":{"num_deleted":"0","num_feature":"12","num_nodes":"13","size_leaf_vector":"1"}},{"base_weights":[-5.89E-4,-2.058415E0,3.3889826E-2,9.5837784E-1,-2.894839E0,-3.7917036E-1,2.0185858E-1,-3.7390187E-1,2.834637E-1,-5.3926605E-1,-1.16490796E-1,2.7122974E-1,-8.255339E-2,3.9133567E-2,-1.1387537E-1],"categories":[],"categories_nodes":[],"categories_segments":[],"categories_sizes":[],"default_left":[0,0,0,0,0,0,0,0,0,0,0,0,0,0,0],"id":71,"left_children":[1,3,5,7,9,11,13,-1,-1,-1,-1,-1,-1,-1,-1],"loss_changes":[1.636128E2,9.8660446E1,1.574331E2,8.992054E1,1.2334978E2,9.0746564E2,4.1017227E2,0E0,0E0,0E0,0E0,0E0,0E0,0E0,0E0],"parents":[2147483647,0,0,1,1,2,2,3,3,4,4,5,5,6,6],"right_children":[2,4,6,8,10,12,14,-1,-1,-1,-1,-1,-1,-1,-1],"split_conditions":[2.1E1,1.9E1,1E0,1E0,2E1,3.1E1,5.5E1,-3.7390187E-1,2.834637E-1,-5.3926605E-1,-1.16490796E-1,2.7122974E-1,-8.255339E-2,3.9133567E-2,-1.1387537E-1],"split_indices":[11,11,7,9,11,11,11,0,0,0,0,0,0,0,0],"split_type":[0,0,0,0,0,0,0,0,0,0,0,0,0,0,0],"sum_hessian":[2.304E3,3.7E1,2.267E3,8E0,2.9E1,6.55E2,1.612E3,2E0,6E0,1.1E1,1.8E1,8.2E1,5.73E2,1.413E3,1.99E2],"tree_param":{"num_deleted":"0","num_feature":"12","num_nodes":"15","size_leaf_vector":"1"}},{"base_weights":[-8.046504E-4,-3.9073396E-1,2.1193212E-1,-1.8255804E-1,-2.9575193E0,1.0775758E0,-5.829235E-2,-4.51149E-2,7.940579E-2,-8.821579E-1,-1.1855536E-1,-3.5264057E-3,5.452145E-1,-3.833253E-2,1.363235E-1],"categories":[],"categories_nodes":[],"categories_segments":[],"categories_sizes":[],"default_left":[0,0,0,0,0,0,0,0,0,0,0,0,0,0,0],"id":72,"left_children":[1,3,5,7,9,11,13,-1,-1,-1,-1,-1,-1,-1,-1],"loss_changes":[1.9128787E2,4.344152E2,3.4906866E2,1.9814012E2,6.233873E2,1.7284014E3,5.263277E2,0E0,0E0,0E0,0E0,0E0,0E0,0E0,0E0],"parents":[2147483647,0,0,1,1,2,2,3,3,4,4,5,5,6,6],"right_children":[2,4,6,8,10,12,14,-1,-1,-1,-1,-1,-1,-1,-1],"split_conditions":[3.8E1,3.7E1,4.3E1,3.4E1,1E0,1E0,1E0,-4.51149E-2,7.940579E-2,-8.821579E-1,-1.1855536E-1,-3.5264057E-3,5.452145E-1,-3.833253E-2,1.363235E-1],"split_indices":[11,11,11,11,7,2,4,0,0,0,0,0,0,0,0],"split_type":[0,0,0,0,0,0,0,0,0,0,0,0,0,0,0],"sum_hessian":[2.304E3,8.13E2,1.491E3,7.53E2,6E1,3.54E2,1.137E3,5.91E2,1.62E2,1.3E1,4.7E1,2.83E2,7.1E1,9.26E2,2.11E2],"tree_param":{"num_deleted":"0","num_feature":"12","num_nodes":"15","size_leaf_vector":"1"}},{"base_weights":[-8.675606E-4,-3.528497E-1,1.9116616E-1,-1.6425863E-1,-2.6781743E0,2.2977772E0,9.514314E-2,3.967969E-2,-5.7661153E-2,-4.6504445E-2,-6.871515E-1,3.7827513E-1,-2.9043195E-1,4.0931366E-2,-5.203857E-2],"categories":[],"categories_nodes":[],"categories_segments":[],"categories_sizes":[],"default_left":[0,0,0,0,0,0,0,0,0,0,0,0,0,0,0],"id":73,"left_children":[1,3,5,7,9,11,13,-1,-1,-1,-1,-1,-1,-1,-1],"loss_changes":[1.5586801E2,3.5652792E2,3.0158786E2,1.7466888E2,5.629093E2,5.1310986E2,2.7636108E2,0E0,0E0,0E0,0E0,0E0,0E0,0E0,0E0],"parents":[2147483647,0,0,1,1,2,2,3,3,4,4,5,5,6,6],"right_children":[2,4,6,8,10,12,14,-1,-1,-1,-1,-1,-1,-1,-1],"split_conditions":[3.8E1,3.7E1,3.9E1,1E0,1E0,1E0,1E0,3.967969E-2,-5.7661153E-2,-4.6504445E-2,-6.871515E-1,3.7827513E-1,-2.9043195E-1,4.0931366E-2,-5.203857E-2],"split_indices":[11,11,11,5,3,9,3,0,0,0,0,0,0,0,0],"split_type":[0,0,0,0,0,0,0,0,0,0,0,0,0,0,0],"sum_hessian":[2.304E3,8.13E2,1.491E3,7.53E2,6E1,6.4E1,1.427E3,3.19E2,4.34E2,4E1,2E1,5E1,1.4E1,9.45E2,4.82E2],"tree_param":{"num_deleted":"0","num_feature":"12","num_nodes":"15","size_leaf_vector":"1"}},{"base_weights":[-1.0723892E-3,2.6362611E-2,-2.155156E0,-7.67679E-3,9.681747E0,1.674552E-1,-1.1086408E0,2.9999623E-3,-5.3172165E-1,1.5995919E0,-6.3140295E-2,-1.4531386E-1,6.616339E-1],"categories":[],"categories_nodes":[],"categories_segments":[],"categories_sizes":[],"default_left":[0,0,0,0,0,0,0,0,0,0,0,0,0],"id":74,"left_children":[1,3,5,7,9,11,-1,-1,-1,-1,-1,-1,-1],"loss_changes":[1.3627606E2,7.484412E2,6.034274E2,4.542603E2,5.3105176E2,2.6043893E2,0E0,0E0,0E0,0E0,0E0,0E0,0E0],"parents":[2147483647,0,0,1,1,2,2,3,3,4,4,5,5],"right_children":[2,4,6,8,10,12,-1,-1,-1,-1,-1,-1,-1],"split_conditions":[6.9E1,6.7E1,1E0,6.5E1,6.8E1,1E0,-1.1086408E0,2.9999623E-3,-5.3172165E-1,1.5995919E0,-6.3140295E-2,-1.4531386E-1,6.616339E-1],"split_indices":[11,11,2,11,11,1,0,0,0,0,0,0,0],"split_type":[0,0,0,0,0,0,0,0,0,0,0,0,0],"sum_hessian":[2.304E3,2.276E3,2.8E1,2.269E3,7E0,2.3E1,5E0,2.254E3,1.5E1,4E0,3E0,1.9E1,4E0],"tree_param":{"num_deleted":"0","num_feature":"12","num_nodes":"13","size_leaf_vector":"1"}},{"base_weights":[-7.843291E-4,-6.864379E-1,8.596949E-2,-3.2054424E-1,-2.7422345E0,1.715471E-1,-8.420305E-1,1.860671E-2,-2.4220066E-1,-2.9391175E-2,-8.94761E-1,2.1393606E-2,-3.2509872E-1,4.613083E-1,-1.169525E-1],"categories":[],"categories_nodes":[],"categories_segments":[],"categories_sizes":[],"default_left":[0,0,0,0,0,0,0,0,0,0,0,0,0,0,0],"id":75,"left_children":[1,3,5,7,9,11,13,-1,-1,-1,-1,-1,-1,-1,-1],"loss_changes":[1.3716748E2,1.9394156E2,1.6270905E2,2.3573271E2,5.898878E2,2.7271613E2,3.14463E2,0E0,0E0,0E0,0E0,0E0,0E0,0E0,0E0],"parents":[2147483647,0,0,1,1,2,2,3,3,4,4,5,5,6,6],"right_children":[2,4,6,8,10,12,14,-1,-1,-1,-1,-1,-1,-1,-1],"split_conditions":[2.8E1,2.7E1,1E0,1E0,1E0,6.9E1,3.1E1,1.860671E-2,-2.4220066E-1,-2.9391175E-2,-8.94761E-1,2.1393606E-2,-3.2509872E-1,4.613083E-1,-1.169525E-1],"split_indices":[11,11,0,2,9,11,11,0,0,0,0,0,0,0,0],"split_type":[0,0,0,0,0,0,0,0,0,0,0,0,0,0,0],"sum_hessian":[2.304E3,2.58E2,2.046E3,2.2E2,3.8E1,1.874E3,1.72E2,1.78E2,4.2E1,2.8E1,1E1,1.852E3,2.2E1,9E0,1.63E2],"tree_param":{"num_deleted":"0","num_feature":"12","num_nodes":"15","size_leaf_vector":"1"}},{"base_weights":[-1.1858703E-3,-1.8187912E0,2.9268358E-2,-4.7181845E-1,-1.0118899E0,-2.4272708E-2,9.878557E-1,2.6473394E-1,-1.9959986E-1,8.961692E-3,-2.4607836E-1,3.09467E-1,-2.1280316E-1],"categories":[],"categories_nodes":[],"categories_segments":[],"categories_sizes":[],"default_left":[0,0,0,0,0,0,0,0,0,0,0,0,0],"id":76,"left_children":[1,3,5,-1,7,9,11,-1,-1,-1,-1,-1,-1],"loss_changes":[1.2764366E2,8.412763E1,1.16426315E2,0E0,1.1691754E2,5.9655365E2,7.9433704E2,0E0,0E0,0E0,0E0,0E0,0E0],"parents":[2147483647,0,0,1,1,2,2,4,4,5,5,6,6],"right_children":[2,4,6,-1,8,10,12,-1,-1,-1,-1,-1,-1],"split_conditions":[2.1E1,1E0,6.1E1,-4.7181845E-1,1.9E1,5.8E1,1E0,2.6473394E-1,-1.9959986E-1,8.961692E-3,-2.4607836E-1,3.09467E-1,-2.1280316E-1],"split_indices":[11,9,11,0,11,11,5,0,0,0,0,0,0],"split_type":[0,0,0,0,0,0,0,0,0,0,0,0,0],"sum_hessian":[2.304E3,3.7E1,2.267E3,7E0,3E1,2.148E3,1.19E2,6E0,2.4E1,2.053E3,9.5E1,7.1E1,4.8E1],"tree_param":{"num_deleted":"0","num_feature":"12","num_nodes":"13","size_leaf_vector":"1"}},{"base_weights":[-1.3059281E-3,-3.1476787E-1,1.6971238E-1,-1.4210322E-1,-2.443856E0,9.005672E-1,-5.8427487E-2,-2.6733955E-2,1.6265714E-1,-3.369596E-1,6.6036934E-1,2.0573986E-1,-2.9152825E-1,-3.2078233E-2,1.4373389E-1],"categories":[],"categories_nodes":[],"categories_segments":[],"categories_sizes":[],"default_left":[0,0,0,0,0,0,0,0,0,0,0,0,0,0,0],"id":77,"left_children":[1,3,5,7,9,11,13,-1,-1,-1,-1,-1,-1,-1,-1],"loss_changes":[1.2361924E2,2.9889398E2,2.4882437E2,1.6744762E2,5.331682E2,1.5730725E3,4.4703683E2,0E0,0E0,0E0,0E0,0E0,0E0,0E0,0E0],"parents":[2147483647,0,0,1,1,2,2,3,3,4,4,5,5,6,6],"right_children":[2,4,6,8,10,12,14,-1,-1,-1,-1,-1,-1,-1,-1],"split_conditions":[3.8E1,3.7E1,4.3E1,3.6E1,1E0,1E0,1E0,-2.6733955E-2,1.6265714E-1,-3.369596E-1,6.6036934E-1,2.0573986E-1,-2.9152825E-1,-3.2078233E-2,1.4373389E-1],"split_indices":[11,11,11,11,0,4,1,0,0,0,0,0,0,0,0],"split_type":[0,0,0,0,0,0,0,0,0,0,0,0,0,0,0],"sum_hessian":[2.304E3,8.13E2,1.491E3,7.53E2,6E1,3.54E2,1.137E3,7.04E2,4.9E1,5.5E1,5E0,2.72E2,8.2E1,9.68E2,1.69E2],"tree_param":{"num_deleted":"0","num_feature":"12","num_nodes":"15","size_leaf_vector":"1"}},{"base_weights":[-9.640071E-4,-2.394795E0,1.9979818E-2,-5.845454E0,9.5987666E-1,-2.8421251E-2,8.938559E-1,1.6330223E-1,-7.919201E-1,-3.1032714E-1,2.2076063E-1,7.306265E-3,-2.218486E-1,2.7893957E-1,-1.909669E-1],"categories":[],"categories_nodes":[],"categories_segments":[],"categories_sizes":[],"default_left":[0,0,0,0,0,0,0,0,0,0,0,0,0,0,0],"id":78,"left_children":[1,3,5,7,9,11,13,-1,-1,-1,-1,-1,-1,-1,-1],"loss_changes":[1.1561126E2,2.3712752E2,9.67153E1,1.6801688E2,6.2617622E1,4.8179153E2,6.4303E2,0E0,0E0,0E0,0E0,0E0,0E0,0E0,0E0],"parents":[2147483647,0,0,1,1,2,2,3,3,4,4,5,5,6,6],"right_children":[2,4,6,8,10,12,14,-1,-1,-1,-1,-1,-1,-1,-1],"split_conditions":[2E1,1E0,6.1E1,1E0,1E0,5.8E1,1E0,1.6330223E-1,-7.919201E-1,-3.1032714E-1,2.2076063E-1,7.306265E-3,-2.218486E-1,2.7893957E-1,-1.909669E-1],"split_indices":[11,3,11,5,9,11,5,0,0,0,0,0,0,0,0],"split_type":[0,0,0,0,0,0,0,0,0,0,0,0,0,0,0],"sum_hessian":[2.304E3,1.9E1,2.285E3,9E0,1E1,2.166E3,1.19E2,2E0,7E0,2E0,8E0,2.071E3,9.5E1,7.1E1,4.8E1],"tree_param":{"num_deleted":"0","num_feature":"12","num_nodes":"15","size_leaf_vector":"1"}},{"base_weights":[-1.2366032E-3,-2.8485498E-1,1.5349972E-1,-1.2942857E-1,-2.2013576E0,1.940225E0,7.206369E-2,1.0102763E-2,-9.591248E-2,-7.40956E-1,-6.3643694E-2,6.807108E-1,2.1211827E-2,-5.086113E-2,3.5747692E-2],"categories":[],"categories_nodes":[],"categories_segments":[],"categories_sizes":[],"default_left":[0,0,0,0,0,0,0,0,0,0,0,0,0,0,0],"id":79,"left_children":[1,3,5,7,9,11,13,-1,-1,-1,-1,-1,-1,-1,-1],"loss_changes":[1.0120111E2,2.4218541E2,2.1695187E2,1.442682E2,4.924601E2,5.4523816E2,2.368476E2,0E0,0E0,0E0,0E0,0E0,0E0,0E0,0E0],"parents":[2147483647,0,0,1,1,2,2,3,3,4,4,5,5,6,6],"right_children":[2,4,6,8,10,12,14,-1,-1,-1,-1,-1,-1,-1,-1],"split_conditions":[3.8E1,3.7E1,3.9E1,1E0,1E0,1E0,1E0,1.0102763E-2,-9.591248E-2,-7.40956E-1,-6.3643694E-2,6.807108E-1,2.1211827E-2,-5.086113E-2,3.5747692E-2],"split_indices":[11,11,11,2,7,7,7,0,0,0,0,0,0,0,0],"split_type":[0,0,0,0,0,0,0,0,0,0,0,0,0,0,0],"sum_hessian":[2.304E3,8.13E2,1.491E3,7.53E2,6E1,6.4E1,1.427E3,5.9E2,1.63E2,1.3E1,4.7E1,1.6E1,4.8E1,4.7E2,9.57E2],"tree_param":{"num_deleted":"0","num_feature":"12","num_nodes":"15","size_leaf_vector":"1"}},{"base_weights":[-1.2032175E-3,6.240457E-2,-6.783952E-1,9.628881E-2,-3.0134616E0,3.9700215E0,-1.081107E0,7.118448E-3,7.542104E-1,-5.217842E-1,5.9658754E-1,-2.3970865E-1,3.2359853E0,-1.6737935E-1,1.9973864E-1],"categories":[],"categories_nodes":[],"categories_segments":[],"categories_sizes":[],"default_left":[0,0,0,0,0,0,0,0,0,0,0,0,0,0,0],"id":80,"left_children":[1,3,5,7,9,11,13,-1,-1,-1,-1,-1,-1,-1,-1],"loss_changes":[9.932949E1,2.1999304E2,3.749426E2,3.8938278E2,4.86388E2,2.969747E3,3.3724152E2,0E0,0E0,0E0,0E0,0E0,0E0,0E0,0E0],"parents":[2147483647,0,0,1,1,2,2,3,3,4,4,5,5,6,6],"right_children":[2,4,6,8,10,12,14,-1,-1,-1,-1,-1,-1,-1,-1],"split_conditions":[1E0,6.9E1,2.5E1,6.7E1,1E0,2.4E1,5.6E1,7.118448E-3,7.542104E-1,-5.217842E-1,5.9658754E-1,-2.3970865E-1,3.2359853E0,-1.6737935E-1,1.9973864E-1],"split_indices":[0,11,11,11,1,11,11,0,0,0,0,0,0,0,0],"split_type":[0,0,0,0,0,0,0,0,0,0,0,0,0,0,0],"sum_hessian":[2.304E3,2.107E3,1.97E2,2.085E3,2.2E1,1.5E1,1.82E2,2.079E3,6E0,1.8E1,4E0,1.3E1,2E0,1.53E2,2.9E1],"tree_param":{"num_deleted":"0","num_feature":"12","num_nodes":"15","size_leaf_vector":"1"}},{"base_weights":[5.9300335E-4,-5.700131E-1,7.278958E-2,-2.3685285E-1,-2.4433055E0,1.7018012E0,3.1150928E-2,-1.2580563E-1,5.87017E-2,-6.695542E-1,4.9332302E-2,7.42432E-1,-6.641334E-2,-4.3652046E-2,2.2662807E-2],"categories":[],"categories_nodes":[],"categories_segments":[],"categories_sizes":[],"default_left":[0,0,0,0,0,0,0,0,0,0,0,0,0,0,0],"id":81,"left_children":[1,3,5,7,9,11,13,-1,-1,-1,-1,-1,-1,-1,-1],"loss_changes":[9.4997826E1,1.610649E2,1.3879468E2,1.8667436E2,4.903053E2,6.9542505E2,1.8266278E2,0E0,0E0,0E0,0E0,0E0,0E0,0E0,0E0],"parents":[2147483647,0,0,1,1,2,2,3,3,4,4,5,5,6,6],"right_children":[2,4,6,8,10,12,14,-1,-1,-1,-1,-1,-1,-1,-1],"split_conditions":[2.8E1,2.7E1,2.9E1,1E0,1E0,1E0,1E0,-1.2580563E-1,5.87017E-2,-6.695542E-1,4.9332302E-2,7.42432E-1,-6.641334E-2,-4.3652046E-2,2.2662807E-2],"split_indices":[11,11,11,9,5,7,7,0,0,0,0,0,0,0,0],"split_type":[0,0,0,0,0,0,0,0,0,0,0,0,0,0,0],"sum_hessian":[2.304E3,2.58E2,2.046E3,2.2E2,3.8E1,5E1,1.996E3,9.8E1,1.22E2,1.5E1,2.3E1,1.4E1,3.6E1,5.88E2,1.408E3],"tree_param":{"num_deleted":"0","num_feature":"12","num_nodes":"15","size_leaf_vector":"1"}},{"base_weights":[5.22904E-4,1.4102283E-1,-3.1594947E-1,4.6173565E-2,1.7867265E0,-5.622306E-1,9.4790334E-1,1.8112846E-2,-2.504371E-1,4.251824E-1,-1.9971848E-1,-2.5567487E-2,-6.990431E-1,9.916158E-1,-4.8219543E-2],"categories":[],"categories_nodes":[],"categories_segments":[],"categories_sizes":[],"default_left":[0,0,0,0,0,0,0,0,0,0,0,0,0,0,0],"id":82,"left_children":[1,3,5,7,9,11,13,-1,-1,-1,-1,-1,-1,-1,-1],"loss_changes":[1.0253486E2,2.4919926E2,2.2121846E2,5.205527E2,8.2000244E2,1.1687501E3,1.4925383E3,0E0,0E0,0E0,0E0,0E0,0E0,0E0,0E0],"parents":[2147483647,0,0,1,1,2,2,3,3,4,4,5,5,6,6],"right_children":[2,4,6,8,10,12,14,-1,-1,-1,-1,-1,-1,-1,-1],"split_conditions":[1E0,6.1E1,5.3E1,5.8E1,6.5E1,5.1E1,5.4E1,1.8112846E-2,-2.504371E-1,4.251824E-1,-1.9971848E-1,-2.5567487E-2,-6.990431E-1,9.916158E-1,-4.8219543E-2],"split_indices":[9,11,11,11,11,11,11,0,0,0,0,0,0,0,0],"split_type":[0,0,0,0,0,0,0,0,0,0,0,0,0,0,0],"sum_hessian":[2.304E3,1.596E3,7.08E2,1.51E3,8.6E1,5.93E2,1.15E2,1.435E3,7.5E1,5.2E1,3.4E1,5.67E2,2.6E1,1.5E1,1E2],"tree_param":{"num_deleted":"0","num_feature":"12","num_nodes":"15","size_leaf_vector":"1"}},{"base_weights":[5.624014E-4,-2.1509304E0,1.9385364E-2,-5.220994E0,8.355758E-1,1.571711E-1,-2.5477055E-1,1.5728594E-1,-7.116065E-1,-2.8360698E-1,1.9666159E-1,6.867771E-2,-4.756827E-2,-1.6492121E-1,5.135349E-2],"categories":[],"categories_nodes":[],"categories_segments":[],"categories_sizes":[],"default_left":[0,0,0,0,0,0,0,0,0,0,0,0,0,0,0],"id":83,"left_children":[1,3,5,7,9,11,13,-1,-1,-1,-1,-1,-1,-1,-1],"loss_changes":[9.338835E1,1.8773782E2,8.6393166E1,1.3994089E2,5.1258026E1,5.1044495E2,8.2043506E2,0E0,0E0,0E0,0E0,0E0,0E0,0E0,0E0],"parents":[2147483647,0,0,1,1,2,2,3,3,4,4,5,5,6,6],"right_children":[2,4,6,8,10,12,14,-1,-1,-1,-1,-1,-1,-1,-1],"split_conditions":[2E1,1E0,1E0,1E0,1E0,1E0,1E0,1.5728594E-1,-7.116065E-1,-2.8360698E-1,1.9666159E-1,6.867771E-2,-4.756827E-2,-1.6492121E-1,5.135349E-2],"split_indices":[11,3,3,5,9,5,5,0,0,0,0,0,0,0,0],"split_type":[0,0,0,0,0,0,0,0,0,0,0,0,0,0,0],"sum_hessian":[2.304E3,1.9E1,2.285E3,9E0,1E1,1.521E3,7.64E2,2E0,7E0,2E0,8E0,8.28E2,6.93E2,2.71E2,4.93E2],"tree_param":{"num_deleted":"0","num_feature":"12","num_nodes":"15","size_leaf_vector":"1"}},{"base_weights":[1.8750686E-4,-3.3457914E-1,1.1581275E-1,6.0368236E-2,-1.7811216E0,-1.0902973E-1,8.4751874E-1,1.417362E-1,-8.461253E-2,-4.2919427E-1,-1.02763765E-1,-8.4397726E-2,5.4865647E-2,1.6834657E-1,-3.0188963E-1],"categories":[],"categories_nodes":[],"categories_segments":[],"categories_sizes":[],"default_left":[0,0,0,0,0,0,0,0,0,0,0,0,0,0,0],"id":84,"left_children":[1,3,5,7,9,11,13,-1,-1,-1,-1,-1,-1,-1,-1],"loss_changes":[8.925948E1,3.3832193E2,2.8207727E2,5.744287E2,2.3585611E2,6.3463776E2,1.3076256E3,0E0,0E0,0E0,0E0,0E0,0E0,0E0,0E0],"parents":[2147483647,0,0,1,1,2,2,3,3,4,4,5,5,6,6],"right_children":[2,4,6,8,10,12,14,-1,-1,-1,-1,-1,-1,-1,-1],"split_conditions":[3.4E1,3.2E1,1E0,1E0,1E0,1E0,5.6E1,1.417362E-1,-8.461253E-2,-4.2919427E-1,-1.02763765E-1,-8.4397726E-2,5.4865647E-2,1.6834657E-1,-3.0188963E-1],"split_indices":[11,11,2,5,7,5,11,0,0,0,0,0,0,0,0],"split_type":[0,0,0,0,0,0,0,0,0,0,0,0,0,0,0],"sum_hessian":[2.304E3,5.91E2,1.713E3,4.65E2,1.26E2,1.311E3,4.02E2,1.86E2,2.79E2,2.8E1,9.8E1,6.19E2,6.92E2,3.31E2,7.1E1],"tree_param":{"num_deleted":"0","num_feature":"12","num_nodes":"15","size_leaf_vector":"1"}},{"base_weights":[-1.0891085E-4,-1.0247022E-1,4.1178966E-1,4.984756E-2,-1.4005688E0,2.3556712E0,1.4678897E-1,-4.13447E-3,2.1452256E-1,-4.046673E-2,-4.4213387E-1,4.028103E-1,-1.5174268E0,-6.1374325E-2,1.6555898E-1],"categories":[],"categories_nodes":[],"categories_segments":[],"categories_sizes":[],"default_left":[0,0,0,0,0,0,0,0,0,0,0,0,0,0,0],"id":85,"left_children":[1,3,5,7,9,11,13,-1,-1,-1,-1,-1,-1,-1,-1],"loss_changes":[9.72267E1,3.652651E2,2.3609886E2,3.1613873E2,5.818384E2,1.673593E3,4.657502E2,0E0,0E0,0E0,0E0,0E0,0E0,0E0,0E0],"parents":[2147483647,0,0,1,1,2,2,3,3,4,4,5,5,6,6],"right_children":[2,4,6,8,10,12,14,-1,-1,-1,-1,-1,-1,-1,-1],"split_conditions":[5.3E1,5E1,5.4E1,4.9E1,1E0,1E0,1E0,-4.13447E-3,2.1452256E-1,-4.046673E-2,-4.4213387E-1,4.028103E-1,-1.5174268E0,-6.1374325E-2,1.6555898E-1],"split_indices":[11,11,11,11,2,0,3,0,0,0,0,0,0,0,0],"split_type":[0,0,0,0,0,0,0,0,0,0,0,0,0,0,0],"sum_hessian":[2.304E3,1.846E3,4.58E2,1.653E3,1.93E2,5.4E1,4.04E2,1.585E3,6.8E1,1.46E2,4.7E1,5E1,4E0,2.69E2,1.35E2],"tree_param":{"num_deleted":"0","num_feature":"12","num_nodes":"15","size_leaf_vector":"1"}},{"base_weights":[-6.544953E-4,-9.2370145E-2,3.684075E-1,4.4990603E-2,-1.2630006E0,9.9688536E-1,-3.4947848E-1,-3.7212179E-3,1.9338112E-1,-3.6447626E-2,-3.988419E-1,1.8937384E-1,-2.5387165E-1,-1.1978146E-1,3.7640795E-1],"categories":[],"categories_nodes":[],"categories_segments":[],"categories_sizes":[],"default_left":[0,0,0,0,0,0,0,0,0,0,0,0,0,0,0],"id":86,"left_children":[1,3,5,7,9,11,13,-1,-1,-1,-1,-1,-1,-1,-1],"loss_changes":[7.805543E1,2.9705197E2,2.074379E2,2.5688242E2,4.7362408E2,7.81682E2,7.5478973E2,0E0,0E0,0E0,0E0,0E0,0E0,0E0,0E0],"parents":[2147483647,0,0,1,1,2,2,3,3,4,4,5,5,6,6],"right_children":[2,4,6,8,10,12,14,-1,-1,-1,-1,-1,-1,-1,-1],"split_conditions":[5.3E1,5E1,5.8E1,4.9E1,1E0,1E0,1E0,-3.7212179E-3,1.9338112E-1,-3.6447626E-2,-3.988419E-1,1.8937384E-1,-2.5387165E-1,-1.1978146E-1,3.7640795E-1],"split_indices":[11,11,11,11,2,4,4,0,0,0,0,0,0,0,0],"split_type":[0,0,0,0,0,0,0,0,0,0,0,0,0,0,0],"sum_hessian":[2.304E3,1.846E3,4.58E2,1.653E3,1.93E2,2.44E2,2.14E2,1.585E3,6.8E1,1.46E2,4.7E1,1.95E2,4.9E1,1.78E2,3.6E1],"tree_param":{"num_deleted":"0","num_feature":"12","num_nodes":"15","size_leaf_vector":"1"}},{"base_weights":[-6.11395E-4,-4.5240276E-2,8.123831E-1,3.1543907E-2,-1.7172245E0,2.5496974E0,-1.7569842E0,-8.326457E-3,8.969305E-2,-3.821541E-1,7.613789E-1,9.764984E-2,8.997485E-1,3.358306E-2,-1.4361849E0],"categories":[],"categories_nodes":[],"categories_segments":[],"categories_sizes":[],"default_left":[0,0,0,0,0,0,0,0,0,0,0,0,0,0,0],"id":87,"left_children":[1,3,5,7,9,11,13,-1,-1,-1,-1,-1,-1,-1,-1],"loss_changes":[8.366914E1,2.8069708E2,5.4013556E2,2.0782329E2,1.9140955E3,7.21557E2,1.2974259E3,0E0,0E0,0E0,0E0,0E0,0E0,0E0,0E0],"parents":[2147483647,0,0,1,1,2,2,3,3,4,4,5,5,6,6],"right_children":[2,4,6,8,10,12,14,-1,-1,-1,-1,-1,-1,-1,-1],"split_conditions":[6.1E1,5.8E1,1E0,5.3E1,1E0,1E0,1E0,-8.326457E-3,8.969305E-2,-3.821541E-1,7.613789E-1,9.764984E-2,8.997485E-1,3.358306E-2,-1.4361849E0],"split_indices":[11,11,5,11,4,1,1,0,0,0,0,0,0,0,0],"split_type":[0,0,0,0,0,0,0,0,0,0,0,0,0,0,0],"sum_hessian":[2.304E3,2.185E3,1.19E2,2.09E3,9.5E1,7.1E1,4.8E1,1.846E3,2.44E2,7.8E1,1.7E1,5.8E1,1.3E1,4.2E1,6E0],"tree_param":{"num_deleted":"0","num_feature":"12","num_nodes":"15","size_leaf_vector":"1"}},{"base_weights":[-5.272251E-4,-1.9174159E0,1.6243685E-2,-3.864102E-1,-7.944836E0,1.508895E-1,-2.5166112E-1,4.8736244E-1,-2.3797765E-1,-1.2479363E-1,-9.761157E-1,6.251227E-2,-4.1581117E-2,-1.4726837E-1,4.2115223E-2],"categories":[],"categories_nodes":[],"categories_segments":[],"categories_sizes":[],"default_left":[0,0,0,0,0,0,0,0,0,0,0,0,0,0,0],"id":88,"left_children":[1,3,5,7,9,11,13,-1,-1,-1,-1,-1,-1,-1,-1],"loss_changes":[7.413222E1,1.8149033E2,8.249916E1,1.8984613E2,3.647357E1,4.092948E2,6.290832E2,0E0,0E0,0E0,0E0,0E0,0E0,0E0,0E0],"parents":[2147483647,0,0,1,1,2,2,3,3,4,4,5,5,6,6],"right_children":[2,4,6,8,10,12,14,-1,-1,-1,-1,-1,-1,-1,-1],"split_conditions":[2E1,1E0,1E0,1E0,1E0,1E0,1E0,4.8736244E-1,-2.3797765E-1,-1.2479363E-1,-9.761157E-1,6.251227E-2,-4.1581117E-2,-1.4726837E-1,4.2115223E-2],"split_indices":[11,4,3,7,5,5,5,0,0,0,0,0,0,0,0],"split_type":[0,0,0,0,0,0,0,0,0,0,0,0,0,0,0],"sum_hessian":[2.304E3,1.9E1,2.285E3,1.6E1,3E0,1.521E3,7.64E2,4E0,1.2E1,1E0,2E0,8.28E2,6.93E2,2.71E2,4.93E2],"tree_param":{"num_deleted":"0","num_feature":"12","num_nodes":"15","size_leaf_vector":"1"}},{"base_weights":[-8.8139944E-4,1.1674638E-1,-2.65833E-1,3.126105E-2,1.600098E0,-4.7861576E-1,8.260532E-1,1.8549131E-2,-1.5045623E-1,3.8250226E-1,-1.8147904E-1,-2.8808082E-2,-8.971903E-1,8.5545313E-1,-4.064388E-2],"categories":[],"categories_nodes":[],"categories_segments":[],"categories_sizes":[],"default_left":[0,0,0,0,0,0,0,0,0,0,0,0,0,0,0],"id":89,"left_children":[1,3,5,7,9,11,13,-1,-1,-1,-1,-1,-1,-1,-1],"loss_changes":[7.186789E1,2.0245724E2,1.6512057E2,3.581903E2,6.679562E2,9.586667E2,1.1084102E3,0E0,0E0,0E0,0E0,0E0,0E0,0E0,0E0],